{"Layers":[{"Weights":[[-0.01213825657768769,0.0073662276750401795,-0.06191416364570615,-0.09766213548041648,-0.06891463915325706,0.08148541038025756,0.007882903397900695,0.05741036046209996,0.07440748651110704,0.003351214295094107,0.037557201898856474,0.09407099607408351,-0.08455125684016188,0.0413202796093039,0.026250336642704902,0.018929897608642526,-0.048618211743474186,0.03816328080061798,0.02438780926744899,0.08438315671230695,-0.032383403986001966,0.002792601120954988,0.07570648289603069,0.0727472663039121,-0.05769015458685364,-0.04647698258317198,-0.07944527700840265,-0.0546542908587376,-0.059244411969946564,0.05851579860841877,0.04193044367778173,0.06300272920804315,0.022105090890096865,-0.09192492145747069,0.08060539521419746,0.056877343260055,-0.06412224935913369,0.03495880357000297,-0.017869314396989466,-0.06756193215856685,-0.016070395432305692,-0.01817645561555639,-0.08285782364582775,0.006384178893940523,0.07688313331772703,0.019454063007314476,0.07221607470696564,0.0032089819131349007,-0.05796770462083183,-0.09849174258998104,-0.09965924922173737,0.05180183282938439,0.00497059242061644,0.05191644098842893,0.009275725406615545,0.03215249656802538,0.09095013214420208,-0.05209699312053055,0.09848644646177715,-0.03199545376789466,-0.02877826778487301,0.06656648270115167,0.07659640232677134,-0.059518072742948486,-0.05574481125835795,0.05137065796157575,0.09253509076988153,-0.04385524709131863,-0.07715789045354729,0.09001320202233096,0.03951587310152718,0.018418065743422488,-0.06130831169808575,0.012276407246447935,-0.01592384067149591,-0.05862891720207062,0.018402912583145165,-0.032102610572407195,0.0021623591793080016,0.08949630473720283,-0.011069601083193728,-0.0752501303547136,0.017945210350070767,-0.04653741785855423,-0.0495580926838924,-0.08263861842657216,-0.09305000553070489,0.08260655381507304,-0.08393935863895417,0.008631739908901426,-0.03775120980761492,0.0812839724048959,0.00005025498942137774,0.04023868045427012,-0.06457613355048741,-0.006824877467710974,0.09420478227118734,0.054388620197928644,0.028796982639214097,-0.08651122888399487,0.027022915710066764,-0.05931436939970306,0.006331750744906481,0.0542760585275007,-0.05876104760528457,-0.00008854172021478812,-0.03909133070454793,0.031387699312944384,0.08155836525149437,-0.004222425202677821,0.09540573439492567,-0.0319277449618203,-0.04845141388869956,-0.053332489083282426,0.0612925136788339,-0.09032770620141015,-0.08594551761003798,-0.04357075911529005,0.001560781340980616,0.06430818836885474,0.027349151153342993,0.09291393435306614,0.09887105735956589,-0.02876860482585321,0.05993740445586129,-0.004974668820860201,0.039723899861201895,-0.071427625752214],[-0.019409518842812418,-0.03037703270464398,0.0012017541607082238,-0.09552876671258281,-0.048728226694084976,0.0771981969240664,-0.03255723549555621,-0.020735323245226728,0.05988368818790443,0.04674430200301774,0.018497467293725214,-0.07127164917618681,0.07992139493868916,0.08058717056422471,0.07719102705761921,0.06705952888007435,0.05854088087101808,0.002938675399776214,0.004621171185323153,-0.07588554590121203,-0.04003945690341031,0.07294113366943264,0.02923375314030624,0.03336677539823599,0.020379415823608735,-0.08074867530445229,-0.004461396510655469,0.08484585753359372,-0.0024002721231303065,-0.009937150809975134,-0.06109747725849959,-0.06618890090298636,0.08345476179624,0.02027791960386867,-0.0839533467290475,0.07805896423022898,0.0793999900601535,-0.037316076914756205,0.010402469949538529,-0.02093220836033685,-0.06748714315012555,-0.08988928123995589,0.059707455385007185,0.08085644269440478,0.022080341865396494,0.03863451650840907,0.011068255447064579,-0.07427598430723463,0.06410117941122787,-0.00731206084598901,-0.0374843477892903,-0.03401479560382291,0.03418856616247637,-0.07940042422285518,-0.04278654646019166,-0.058175253217070365,0.01007538948007973,-0.05990627420569625,0.018213397325907738,0.09233876277005748,0.04282944411171219,0.05086259209901328,0.0048973075251445425,0.022478757497796514,0.03687976541553484,0.036326417653969184,0.04152144356402235,-0.022932998311068625,0.040527407748501165,-0.09504296519557698,0.03804863137439879,0.057491009734078585,0.049662433665163375,-0.022668068128996924,0.0060690561891063866,-0.08210381718155695,0.094726636726406,-0.031141567005605483,0.09850734119697255,0.09328986554338456,0.08420550549284664,0.0250049800799938,-0.06803242098612927,0.06529725062305458,0.07784329603490867,0.0958983591223441,-0.04155063848733154,-0.03616552897720586,0.0683845547478718,0.08085692743813319,0.06042256149620823,0.06933145268252713,0.05769671901609874,-0.09119443886204062,0.08865137788470481,-0.03716876059431866,-0.07025403028620315,-0.06354186150325512,0.07746401106653436,0.03130365127703874,-0.05241437098915522,0.006078493061050821,-0.07664400555782189,-0.01987212210515063,0.08000462996130964,-0.05746450436445774,-0.024082064683022306,0.03275613544214742,-0.019726258699670887,0.07689812459212161,-0.09402635245504322,0.031809499054506196,0.08222330157662511,0.001207694493518069,0.0051427119122915005,-0.09782447467142015,-0.03412108945931673,0.05303191533039975,0.07750107381690396,0.03883547737198728,0.033032243989696564,0.062113161353735735,-0.08134265285456857,-0.08137116756762466,0.039855422565174964,0.006667125476575886,-0.020512835240285576,0.06608943841109291],[0.0633509621899305,0.011849581405448895,0.0909735193435166,-0.021778849701494046,-0.08952089082844106,-0.0889899752826612,-0.03870119853682213,0.07814290612690161,0.01764645566928935,0.012081813678803649,0.05037621656796917,0.03344449562652457,-0.05795699735251444,-0.09707236090737892,-0.058513754612837504,-0.004854976859409124,-0.09855700550512764,0.09716592623553641,-0.09985505226032325,0.05413578840784444,0.021386164648201672,-0.046766031916881556,0.05798410597616957,0.07053689974739102,-0.025710788225982384,0.024500514069173862,-0.0033809902285843185,-0.07367837675546454,0.044826257351408855,-0.07896937840335576,0.00907775192370601,-0.05840311112555245,0.08986706890774909,0.03307073264467622,0.02620267403345125,0.08938547553271545,-0.0073285654648396065,-0.0015630029274607271,-0.061385602119416835,-0.07710917615214552,-0.04654879045879732,0.07653945699309073,-0.018873933325112696,0.07349029021722261,0.09634465452020596,-0.001613529606251024,0.04907784473278837,0.03526613272847995,0.06186035614678742,0.06895481905849618,-0.05923399716263994,-0.09496044280628627,0.029507534780151334,0.09154552622906276,-0.09689318253802898,0.0467575363598674,0.03597105015748231,0.05539473177272261,0.06894324835479917,-0.0385460731727237,0.015154519964135221,-0.04218969513972601,0.04032008394325348,-0.01383060906862485,0.01984205210568188,0.01422735883976918,-0.022936181951914797,-0.08559587599869747,0.0500942778426742,-0.048926726678207716,0.04142061720640422,0.06402430053521566,-0.09801356597786941,-0.02661204766195807,-0.08802317003780226,-0.034010767964658725,-0.06109634759446432,0.03774608209736363,-0.05552327213439534,0.09072621165758121,0.030236046852737675,-0.09452386377461125,-0.062390623797543655,0.005054403314460859,-0.09214293288772578,-0.0692470615647268,0.030314974431435437,0.04560522637721162,0.07248437432357996,-0.0726334366306917,-0.004016827529405603,-0.0923570586002115,0.0053020892877804204,-0.09011281757616393,-0.08635792144084298,-0.030156370223991244,0.04198784967548594,-0.03238215465145354,0.06239190463962907,0.040105936794613106,0.03902137771330644,0.0115101936097749,0.041301783193893576,0.06526113961622779,0.0314016832497126,-0.006602828550112877,0.0801220151856252,0.04883292939106926,-0.07909960566859285,0.03855558983249949,-0.034220681123624835,0.03106453222992936,-0.08859465399445486,-0.01641566972667083,-0.08800448281543,-0.07299274269301156,0.05743633213576255,-0.09636556393864489,0.025104311227529902,-0.08543750069538492,-0.03908999398993323,-0.008704037413247032,0.06693695779144285,-0.042147226963253494,0.08233100579819277,0.0011034409011689145,-0.08005282836419947,-0.0921707090772299],[-0.08005922170266971,0.03605149646199052,0.023858852463263386,-0.05164949561769511,-0.09589730991426856,-0.0417492114570313,0.061567771898888846,-0.047626913414533116,0.07231657169531988,-0.0902890794755562,-0.07589146833602309,0.06400169921842422,-0.05533018757112975,-0.03141349210648414,0.08189115867410343,-0.04772158822693622,-0.06135086415211775,0.0374205517930824,-0.089131071552685,0.003375034382893799,-0.03966790479874625,-0.006043169024925993,-0.07393073521828473,-0.015076560849798165,-0.04478076420709817,0.03116125201775674,0.058904813140228385,-0.006860788899026998,0.050124101904196056,-0.04084384364947433,0.05300167741698589,0.03744444369877936,0.038092440192081356,0.0571663175347526,0.04621624125139398,-0.00540010375010079,-0.024993358122580855,0.0020266660876267772,0.08271635105417272,-0.05944251354923657,-0.07624944897776506,-0.029745569040949507,-0.006204045286963264,-0.003915856161466308,-0.008745314676486121,-0.07033595141044387,0.06710234712646843,-0.03596029016853594,0.03885156805668896,0.0389003154620792,0.05313961086119651,-0.08623532271168496,-0.053355779966700184,-0.05900844974622356,0.07714442430439677,-0.03204250075474012,-0.004100410203490765,0.04080552136545551,-0.04587132609507019,-0.058894749582685785,0.015287130713990266,-0.03192115010266787,-0.050910910469996434,0.08318359798412109,-0.059415228333716985,0.011095886686557699,0.06991003233432055,0.05715724730688668,0.01225940783601609,0.06745023025174335,-0.0616307665338903,0.017179001607546415,0.04843796682751894,-0.07250952011513934,-0.07073177310995868,-0.0703012757396612,-0.04326112304306506,-0.03848259218065352,0.01548775666483311,-0.020439586131100765,0.015856000772922776,-0.07580108180622888,-0.09060509793947259,0.04539397536842718,0.023806774612171108,0.0192570045777936,-0.09300868663700872,-0.032837593741149126,-0.02728876187932898,-0.013157117757064046,-0.010580206751218374,0.08125049106444271,0.08730293874976155,0.09472102248311995,0.08142527779207812,-0.09398590687143481,-0.005740918912049989,0.029930049831149053,0.04273037438975513,0.06860496954161549,-0.017680065675669807,-0.07703685765286875,0.05670525991550074,-0.030172916551241158,0.05665885129224568,0.027466708125862604,0.04669258670738158,-0.037712165229347484,-0.03328562321564772,0.07789230073505068,-0.014307753901895953,0.08065338419958709,-0.06315822022930709,-0.08899789892036533,-0.034163909830213904,-0.07172864638945556,-0.032295379560831367,0.015220612785623297,0.0642211942280678,0.03864032647029986,-0.026533500270545615,-0.04771037574822271,0.03956544148996688,-0.037143589100340824,0.09715164299431486,0.003934554062563378,0.051973520392320866,-0.09272483411294366],[0.08355482140057052,0.07328288648601419,-0.05522595578993541,0.06912241907821734,-0.028482246989836063,-0.08608846632741159,-0.08856116197172413,0.047175713435780225,0.026389874955231513,-0.09024441046922337,0.07635247690531766,-0.04471338916210078,-0.07388257092196389,0.0529171921179144,-0.008444735382894253,0.061852449940350746,-0.01055946024544821,-0.009872342419007613,-0.04749008790838233,-0.008804540542422565,-0.08417119586821815,0.06953670702730427,-0.0545346898506713,0.08199593134127994,-0.015761551198019808,0.009673199712288638,-0.04884666589831898,0.05365552103315496,0.012884669291117395,-0.05674087675734232,0.01834981076784019,0.029596802669925953,-0.06630933877265832,-0.003145622485795127,0.05765196471049405,0.015332561443999165,0.023918493611843616,-0.0486486292455782,0.07650375622879987,0.08499962020303961,0.03187688610678735,0.07980766617480453,0.055944254640156066,0.032402709895575976,-0.015432602701197923,-0.07985917161651243,-0.019111224075427077,0.05440501679641005,0.07353124327344651,-0.09436222392691374,0.07420779418923301,-0.03948290186332342,0.07165747158834504,-0.03837444931236294,0.09367236882148378,-0.08512989668694575,0.04512328464760784,-0.060090516214182585,0.037447680833082975,0.09539681165845965,0.06845082211018946,-0.07707744491058047,-0.07452361404378853,0.09439414078108141,0.028977001498003863,-0.055774077775278624,-0.0469687680395869,-0.07687501716779475,-0.017436558651221068,0.08787713742947295,0.05167326477978629,-0.02073192184372978,-0.004255164829372354,0.07298220586543938,-0.03092059852055637,0.0033449757466524482,0.06162143371297793,0.04280257128029302,-0.023712522026731714,0.04752276466785882,-0.0196228169703187,-0.009155194814220835,0.08856023299918403,0.032238218933153984,0.06650671469162736,-0.06974529745732834,0.09629663853265322,-0.005886281960696821,0.08072329150188445,-0.06715187161327163,-0.006440676437239612,0.07405786718750132,-0.028763582225926787,0.040965429156761296,0.0581961674468823,-0.047487155242343974,-0.03170241747777475,0.06414035307100197,-0.012106286660747284,0.044603206269101,0.04626339802716861,0.07034567416952137,-0.06750624622903356,0.07575903902786107,0.08593336011591515,0.026432287584360253,-0.09291233653545583,0.09711535919585876,-0.009551539092267108,-0.0053672704210075,-0.045694853129418456,0.09386190641115028,0.06831119889964005,0.06735585011647519,0.039586667397617153,-0.05988007012130195,-0.03729536465390841,0.05636499476586859,-0.08300017697995096,0.07044743708778531,-0.05472710941718528,-0.011491496555561101,0.07895055664471079,-0.04445582352116323,-0.09535092816258867,-0.005932404393263091,0.0677615120005784,0.05593333521652932],[-0.0898646604680333,0.017817682379931116,-0.019874348000156014,0.027592415274820592,-0.021043560904855027,0.026054635492000794,-0.08005168824603408,0.04548612324876539,0.0065919462894575565,0.02954721497732332,-0.06313683907377193,-0.0388172680881134,0.09657003978092124,0.09021640512655191,0.09193606283089473,0.046092396456325235,-0.061984076447905136,-0.05938987959726664,0.0364307124068389,0.05705289082004708,-0.01941029505235356,-0.029842948811646938,0.06955349371784622,0.06503294344388691,-0.06961805573003535,-0.07089582890774428,-0.099652883616015,0.05989468494788991,0.029501782769411122,0.011044254799335504,-0.04476314675023618,-0.01810383022521772,-0.0417457625694754,-0.05164297554223048,0.053214240096816884,-0.00009599450943434396,0.058145679656805616,-0.0599969096248956,-0.09703811896914193,0.01849095298167125,0.06282980660881715,-0.0331956888748427,0.029815563351100305,-0.04465395231245022,0.0488776660140757,0.07536506548695562,0.048990354336906544,0.011661962307350254,0.09056592871349306,-0.013192258836197512,-0.06735872786495464,0.05881768549455252,0.06764480677839729,0.08014365566967155,-0.09281846609944915,0.08267042607000447,0.08117046217129775,0.02425346976732172,-0.056927801132357514,0.007689639532165796,-0.04923648602735392,0.09990464545559019,0.008742309928253533,0.0661776799059364,0.057926041387112076,0.014483586101477305,0.017176524414738964,0.09457007692500341,0.07199535159487663,0.0062178173238864876,-0.015754705528994828,-0.022818304839984857,-0.0840841812752101,-0.010369199320521216,0.07191629024867252,0.01582599508391158,0.08750321707264622,0.08524174748910948,-0.08637610931139363,-0.06454295243083144,0.08368190700671393,0.05222807453693576,0.04937578864336539,0.06767005650152233,0.017481527208173156,0.029179791402300564,-0.06328138568269134,-0.0918389609707359,0.08794546611978529,0.006030326910433398,0.00858701277867839,-0.03584164541958927,0.06316980919389864,0.0049274294167772625,0.015255121077240558,0.09594839346703268,-0.0034797821307441107,-0.04388925956983765,-0.020868821062877657,0.00828213322649822,-0.006695921715854564,0.047315159873921486,0.0724010337389846,0.07958039676608647,-0.030241217467410306,-0.02604949754752313,-0.08471134388894919,0.07219511278216859,0.07059726869209856,-0.06235553431942819,-0.08231913443198567,0.03916031631496575,-0.023497555951477345,-0.004916905399343446,0.0624609910633904,0.015257761562283007,-0.08962181916242279,0.058081177026017644,-0.010503586109999796,-0.09915274047841427,0.0689210005272935,-0.08102747283675538,0.019008909342526595,0.06525613413207343,-0.0012901644947313773,-0.06696007767388039,0.05604217949643084,0.03128158367486125],[-0.03840484726503333,0.0928839322041983,-0.05053595404478864,-0.07434103279226596,0.08172849720713021,-0.06427757304853884,-0.01583802803206945,-0.07592382723522442,-0.05352512095039,-0.02478417159982807,0.07649038201904457,-0.06007294559707771,-0.0008278908830205711,0.03834680133051582,0.07167867240509623,0.07637348367895125,0.08070656236950133,-0.028318305586890802,0.09696364697485882,0.016663287843186228,0.012948190456019207,-0.060952113096179567,-0.036749059999611144,0.017578751349781527,-0.07213650148503582,-0.028757033604729518,0.07632054838208294,-0.029925811446559827,-0.014368945538126648,-0.03184217311507935,0.03626383753712992,0.004218907132782501,-0.050117967243077544,0.08077072108104896,-0.09824753810382049,-0.020664365627349746,0.0017450219688005808,0.07357004721186447,0.07587891531114976,-0.04729364854564288,-0.09213375906693957,0.06143827080416722,0.010033252732984083,0.0015253298108690166,-0.09919820661093548,-0.042288683000670846,0.011119801545901462,-0.07318013638571183,-0.0516640101411914,0.0467274437224236,0.024743175365673303,-0.004730979125928389,0.010313525643890792,0.07354174961027501,0.06388501432544744,-0.044354257444946546,-0.08122627179630959,-0.027498420983406907,0.012782955524840128,0.01307676953803276,0.078346346415791,-0.03412908753613823,-0.02972901208987734,-0.08611184768764282,-0.021550133923856032,-0.07323804998092032,0.05948938715550578,-0.04993308804204693,-0.08860748984111892,-0.050536168395488815,0.0029977341389706147,0.04451830177359531,-0.004403241337420816,-0.0014833220766238414,0.019789659757758635,-0.049205071857646124,0.08064582617435417,-0.041125840552845044,0.08526287293840204,-0.05076866455640126,0.05595995063315015,0.038070000138783366,-0.05359936085609074,-0.05992242436631172,-0.0622914710528189,0.03589034723136833,-0.043146671420749905,-0.01884396462478137,0.06694822393685568,-0.0864895030274765,-0.015071043443772067,-0.08268674216031738,0.019082611474571423,0.09836880505974396,0.030772657459388786,0.09556140080623735,-0.08103699646514542,0.09075765654119736,-0.007283872285594892,-0.05705728237220781,0.0924911556910846,0.011834751983136799,0.03595852595335397,0.06308049642876115,-0.03406223051095261,0.0590282903093001,0.077747221906009,0.04440912357520907,-0.08471116211282181,-0.017550946381323665,0.0670473862552522,-0.07740519272608576,-0.05800277591255203,0.04865552782910726,0.006804472328624106,-0.05821175546649254,-0.02386754709738871,-0.0028200204122765665,-0.04292349164334154,-0.0035876266597932444,-0.04744179316751282,-0.0009897023503456365,-0.09894260806478142,-0.04348043445604393,-0.03912546724723388,-0.009612949074654459,0.010880960786181768,0.012901352164505095],[-0.0610267578760932,0.04149135727110961,0.028353632869534823,0.05475775589084583,-0.03422758270692004,-0.07364956068112367,0.08871580077135502,0.08323276457937975,-0.06525881183058252,-0.00264495825925902,-0.004539755559162889,-0.08947535743694364,-0.03769645402304176,0.0020202904831391477,-0.04573159433677895,-0.00907911684606906,0.07519325993409226,-0.03683744423809973,0.07794932752133629,-0.06861569771350631,0.016535682285792982,-0.09252766203780118,0.04298155323601016,-0.06463493303538093,-0.04969155735668873,-0.02464924077617585,0.08207720424289275,0.09178471482785308,0.020206206868980045,0.07719396934904602,0.04457950173786404,0.044410448894006,0.050378805668756715,-0.07611665423292763,0.02331881728710164,-0.07957063823125318,-0.02068970749650928,0.03629213336249984,-0.020102131370563214,0.05923961619135354,-0.06523946356018534,-0.002291064243486976,0.05134434419546707,0.08405027073413443,0.003028411859191407,0.08874363615781514,0.01675824221343894,-0.0916638791212092,-0.034864439589529325,-0.004392462310868622,-0.082186396793167,-0.015094368732757796,-0.037060389791180995,-0.05930983543312127,0.0634574061413794,-0.03279578718013684,-0.09512085489772013,0.022074519501578196,0.02782789969973004,-0.015405346532512895,-0.01674874898374544,-0.07295589532881909,-0.07342459529225064,0.07912696420237594,-0.0015837101605875314,0.04445569553710388,0.05474077046433068,-0.08171415491231573,-0.015102727625658202,0.07434177940186379,0.0013556563350259065,0.05065192391925827,-0.06166336697295886,0.016434116354827652,0.05739964271706516,-0.0047541768329765755,-0.09409481926714142,-0.03984944634857266,0.023859139977238736,0.09466512767284185,0.01186258438282592,-0.017900390503776148,0.09943579626083507,0.001988756136797082,0.03025412998812954,0.05875128697966714,-0.04274134528296887,-0.08691809241592229,-0.05828872412251212,0.07608519025723498,-0.017540487044165845,0.007076959047885925,-0.08923791060689275,-0.09483329367138114,0.09507849393010465,0.01307061072828404,0.01833441531429525,-0.09225643164970675,-0.00869315450091021,-0.049180898096814,-0.093936927179103,0.08659898511293468,0.04099693802300891,-0.05215517646395381,0.08516907032090512,0.0724174035643316,0.003283088207827342,-0.020114896939604554,0.026175337721123043,0.020046931806900384,0.016613429930445567,0.038793873030987774,-0.009457926821838436,0.09223303060833862,-0.024822616088024663,0.059132530527161914,0.09605150882527266,-0.07341316808643386,0.08969606961790813,-0.015409854552697166,0.06526420081954928,-0.07692062074351096,0.09493658512254502,-0.0646791921043712,0.06504911712623881,-0.013806726449091644,0.07882796485619145,-0.0042993666630122],[-0.030417547625146188,0.06129178807686694,-0.016466405186793126,0.030428745626943393,0.036442094384483814,0.06841250138645227,0.05797533281259695,0.06107150306603765,-0.000812897211907665,-0.07410710413139346,-0.08508616480028315,0.05304214690055892,-0.013270994721202273,-0.07567848756216981,0.05649226458272033,0.06778717336126236,0.07899204236507837,-0.06929093774659392,-0.09537052751064307,-0.028328051935077883,-0.06107317875792237,0.05645889609705243,-0.006548202988484797,0.022154304745589146,-0.04767942199540864,-0.03375849770450483,0.0883378008602157,-0.0848816634085705,-0.00823821747871363,-0.004470579836583985,-0.011554009829572193,-0.06446844484862224,-0.007960702572389664,0.09594725343282268,0.016193237154894624,0.07169910999460768,-0.02268494464197922,-0.06000373216782737,0.015835802348484,0.009174631629350616,0.040456102403347294,-0.05217421768009946,0.054415123066965915,0.0616905143016461,-0.08201776908061643,0.03426552368571842,-0.002730430005156409,0.093291716997286,0.0479289679596806,-0.07995963962589496,0.0017183368374850821,-0.030199204752953554,0.06310002545461138,-0.04137178485604011,-0.08880658328261869,-0.0603036556898515,0.01804365435556235,-0.06710784433180889,0.03099266756161692,0.09002129844860035,-0.0806493148357096,0.06614175598430688,-0.05872755784171467,-0.015081840884768438,0.04696792824935786,-0.032639698492932204,-0.0872645165272877,0.09424792962062986,0.01923093594344931,-0.013302464892705576,0.04867253049764167,0.04787760416547096,-0.08367556998358178,-0.09152848488401007,-0.03455054606682008,-0.05698853095929366,0.024387958708888574,-0.055060923727734336,-0.014387981084299506,0.06982943138346628,0.04439154010759094,-0.03749450297543103,0.07461077817289027,0.06513058021201659,-0.015756222929711655,0.06510113262715145,-0.05007459834950481,0.06370656909461883,-0.08336455563694548,-0.03941955763131192,-0.07125501191338439,0.08611295418817985,0.0408957511540636,-0.0820492745140122,0.09001026611718327,-0.05591939615464115,-0.024851221048951933,-0.06579894786912402,0.0336064651955143,-0.08910922713499843,-0.08312847471656112,-0.016980188596488838,0.05258438742985669,-0.023095936445575935,0.07524667004720964,0.054760019600171544,-0.028781931800489075,0.05202873824880255,0.03241572782713248,0.07231292414671858,-0.09896037151006853,0.03304119003107736,-0.08427737160373149,-0.07471734820267621,0.0452929252398972,-0.08452663613117868,0.009189977709465141,-0.0007266910159219042,-0.058829641847992845,-0.039556000607765186,0.03605419274265062,-0.06313965770814992,-0.01665282062553987,-0.05913515161208252,-0.013535084052777244,-0.06321498055647323,0.07399119653321967,-0.01520402787937944],[-0.006129758061901983,0.06348796061240919,0.08199200160389372,0.06151454364462958,-0.09324616888966122,-0.08750843663026292,-0.05972686442752838,-0.08367835011742542,0.0978131044081105,0.052066227462554376,0.010557205811151535,-0.027785947891986087,0.009784686493129718,-0.01602254516712301,0.09871001975986374,0.09184345501923916,-0.036180119047700784,0.09840603736939005,0.0778227801812359,0.039030312656572,-0.013653629928530114,0.06994902854899826,0.0876074465443476,-0.058896427433673834,-0.08252433346543117,-0.07020579589770504,-0.03681141238522612,-0.08001101500915984,0.03546932913110146,0.08523620592643169,0.06996549583708397,-0.003506129599819191,-0.0017123740844222357,0.06270230999363385,-0.03263687930508799,0.09738287621210581,-0.013911448548597466,0.036152075725202126,0.016950395941359386,-0.007989170724360811,0.056600791126359656,0.0296457149715475,-0.026551375201465666,0.062239013420236716,0.04022031147322619,0.07852938499668918,0.06491420491542058,-0.06623300305693217,0.03489644369648334,-0.061759730182719755,-0.019881403003707082,-0.0834532089475947,-0.005507422842929377,-0.0025086867335357282,0.037992312717183674,0.037252177806121944,0.06923522417962721,0.08389085736026972,0.007109531935721031,0.07299127723667811,0.05127442984994954,0.026498816806807796,-0.020180002441391537,0.015304668907160715,0.04387619610800525,0.010030091319369688,0.05385288734059346,0.07909041533595887,0.08413468829253709,0.010702251952736802,-0.020483927236195243,0.004482254435475078,0.07872255653863669,0.016181960268563028,0.06762030701709937,0.025972359195142514,0.004052971913957704,0.05479768729446852,0.001958937805643407,0.030375767152670513,-0.007433989301996444,-0.04446788796165622,-0.0160349412913022,-0.005900504379120847,0.06629868498342026,0.000014297197016580054,0.09794857828912226,0.048859309430089176,-0.0017912648110245122,-0.041244957647393915,-0.06839844264669959,-0.01659502175567676,0.018988471342871294,-0.0036419571347114515,-0.06630682260556506,-0.028619325222350597,0.06573259922974659,0.060356810349239426,-0.06347867216239318,0.021662197651203585,-0.08636666023866388,-0.07883532267709883,-0.05182581612731469,-0.02358939476877904,-0.07615333458139578,-0.013160083168560557,0.09010269121207673,0.08422963782542542,0.005684795218521138,-0.049013587982108246,0.028407791382473624,-0.02962877188462798,-0.06976866557072714,-0.003330183189190289,0.0640408200350325,-0.09278509979873822,-0.0010285738546835371,0.0684951245245996,0.09310556048766547,-0.04039418216708295,-0.04638194563343987,-0.056983963322207,0.05156893818389116,0.086221193105054,-0.0913076411539148,0.09472748445734783,0.05228594349802096,-0.04804681605354505],[-0.09537735447658756,-0.034156641212098326,0.013125441062628071,-0.013622022990729454,0.07611672976360306,-0.05738456002683287,-0.08178711321366204,-0.0930879446179348,0.08390981727197144,-0.05049841187805337,0.03759221577443167,-0.07747633836473372,0.03393179584541378,0.0950102095758473,0.042625447239275416,0.06248541366694038,-0.03452645568961342,0.029326504951556365,0.001836208731333236,-0.01811775955120029,0.049214551096816744,0.05474924476721524,0.06334217869312597,0.03545275912286336,-0.06528669202011424,-0.006775431891645117,-0.007034638511771427,-0.09049537688180075,-0.0000634811598138052,0.02815148201627027,-0.03875930262471577,-0.028648201031589646,0.09431481732360797,0.09719091793660631,-0.07683250383907857,0.06123203848144096,-0.05065288355401074,-0.014892923179995896,-0.033392740259377385,-0.054020338900004065,0.08306706827571625,-0.005332104570699811,0.06303051966718617,-0.045485397004912234,0.027456940779576194,0.07479637293664593,-0.07659897679131811,-0.08144246882494043,-0.08472445830340795,0.029933423911533336,-0.08730295329062697,0.049074439426574995,-0.02986371971310285,-0.01959597625957904,0.09852609523328396,-0.0803836369621334,0.0829195119776609,-0.013894659401611276,-0.03765372919236033,-0.09405192307408815,0.0574938073848299,-0.028670351939754327,0.05857121098307824,0.043547516158909116,0.037665039082087626,0.021572811300585082,-0.07620244950336358,-0.015350096433571991,-0.0611205310476744,0.016274835553620498,-0.02702466187538194,-0.06666563863966204,-0.09687079551997813,0.018445721436719784,-0.07683285424749696,-0.042001417323988335,-0.027123088728331288,0.04659152922687665,-0.0364537866227479,-0.04356116865959552,-0.05090794578279123,0.014476580010675838,-0.05697778395400276,-0.02509719850601745,0.06366093258693212,0.05894364814942443,-0.05550068854298745,-0.06469224965954437,0.06662063975887403,0.00240554863108966,-0.04241410294502669,0.031537901006746416,0.013046857121155539,-0.03261134284986662,0.05028667817633148,0.026376986996995005,-0.013318353795411866,-0.05684805295143333,0.01864621932032133,-0.09781241750088683,0.01858503445507287,0.08419135495359187,-0.0012581648479334795,-0.01603327632054906,0.0838660755960936,0.045370914373534965,-0.06465236613344216,-0.008041987216704696,-0.060094536549225114,-0.0089412520458452,-0.06814800919739125,0.05253271462661521,0.042960426054420464,0.08353454478744984,0.05190117561982707,0.052385519017043164,0.07122764954428487,-0.06624936283020752,0.08940259581350582,0.008224447167184873,-0.09472918577057685,0.08168809852620726,-0.0663772030858584,0.045836575614297076,0.045285776937600886,-0.062339787048632495,-0.006549890402704303,-0.06034446866519494],[-0.024778727743988233,-0.0457842868696382,0.06987225006416353,0.012966048104659372,-0.021619430082563812,-0.0397304224577976,-0.03267742611894826,-0.00927874135607952,0.035938858397269124,-0.08589902265315032,-0.06513886534279778,0.015927456864890915,0.06857075330296009,0.07751648190758759,-0.01667376846554386,-0.015347336413914128,-0.07577734711515607,0.002002272202075231,-0.021350958774027,0.06153319742580493,-0.08344835106859531,0.030236051922864937,0.08385048841795714,-0.06037533347105778,0.07100788452535903,0.05776547084458908,-0.052833530240177805,0.01957102097009969,-0.07348492653697201,-0.014706345345055688,-0.04652670562275642,0.050156707685158425,0.07875282759485513,-0.08191549753695478,0.09259436376713084,0.07939691470825752,-0.02658061644597394,0.06121454054289843,-0.06305663814936152,-0.038486146026698524,-0.08151433943461046,0.08803984274441773,0.020277641018666026,0.0657336463264678,0.09142705152631306,-0.08660180589838622,0.09930767979727215,-0.0312732908695921,-0.06317025774223697,0.04876627580113843,0.06764332370708712,-0.006861187255418677,-0.028959835017337426,0.07422665995218841,-0.028854556771969173,0.01259430652917956,0.04700597741007567,-0.019130217560653834,-0.09440707430432148,-0.03575155950079205,-0.04465509695706957,0.08431313535581361,0.07008137003867515,-0.018984177743467695,-0.00695830153675589,-0.02598068760658813,0.08350868871301217,0.011363171346923953,0.024642851333360014,0.051462610159623334,-0.0868045681579252,0.0765751169356568,0.02358283267078054,0.08199638249392191,0.0718547196916561,-0.011893533858415961,0.017475220564977745,-0.029040768248515286,0.04201140460345948,0.0548086570804647,-0.05077493020108627,0.07084831913278408,-0.003371819862528061,0.09013624310105015,-0.011935033366523878,0.02809207833905983,-0.03774820879354303,-0.07339543273711835,0.048495783266363446,-0.09573503409667201,-0.05404254250947172,0.028923952412354736,0.09036130197156228,-0.0506360899519113,-0.06425316500387948,0.07324034230353402,0.031596027344494626,-0.04557704174974238,0.03330929616675812,-0.06772004144271818,-0.006971008591581673,-0.05194977976163255,-0.00451572278895658,-0.019786130798698884,0.06784474124950621,0.05772400888823534,-0.0746580526687762,0.015282066638429903,0.08100158974381369,-0.08500899969099172,-0.006315024727615026,0.06273241339297825,-0.08274967480535951,0.09301271976399048,0.09708752640532889,-0.015466780257241644,-0.053442724066602144,0.06327100286556395,0.08237604723525771,0.0862794548658605,0.05860059054087591,0.03168461155765828,0.06886681133825054,0.0962306888487949,-0.08448546073104221,-0.07634225787704088,-0.08104354864581927,-0.056394254886694],[0.07779101495265309,0.05940754380223104,-0.0802939907103559,-0.06726699225011942,-0.02720098963783485,0.07827515228839252,-0.06351047477282536,0.05813067778073755,0.04130312792936153,0.09680455064568999,0.08738367579751857,0.08207328432560201,-0.04719520187187435,-0.09098786110986988,0.056458663982645374,-0.028878556515522083,-0.056443585814763456,-0.058519614067250716,0.023653100500560825,0.09014084091671784,0.07850747110259623,0.044316846475934396,-0.010200712947723983,0.07742222199283633,-0.025856966953094043,-0.03342298020153821,0.007972833891714742,-0.005234027086999174,0.013059304762767593,-0.07830504976767752,-0.00953725095917067,0.06602101409384073,0.047905473779344954,-0.013223906040376127,0.04277562356115816,0.03175887462338284,-0.09936716379318755,0.05991790962051197,-0.0354764171675193,-0.01452027378759689,-0.0861059664172357,-0.029175533364997217,-0.08605603331703518,-0.0842854020224778,-0.002117585803541794,-0.0496877741069181,-0.07844822448796618,-0.07413088772582224,0.09143975612748939,-0.014651177568924659,0.0031506939681869434,0.034372548774488726,-0.08441282307430395,0.03141605133008049,-0.0952725513809652,-0.04269126947227497,-0.039204488502143836,-0.09156931170129601,0.032380365609373435,0.032925297216803956,-0.08617329027221615,-0.023272248375111285,-0.00034216800514849655,-0.07631550002168572,0.005673629271812516,-0.08683097050020436,0.07506137362690424,-0.02073931760346108,-0.03294786387743209,0.0036277814126617625,0.0008978498328479773,-0.0889418052845135,0.08981166748499525,-0.09797949178449153,-0.0973695397758832,-0.01506607439892374,0.08506150144844254,-0.027245931635248508,-0.007836847864810384,-0.012422171113146585,0.0610703992828657,-0.038831725123249394,-0.06118542951433155,0.03081727345325999,-0.02436274571764259,-0.02405916329088828,-0.09790579993614418,-0.013210330875276871,0.059940063681760025,0.04239907480260821,-0.0848991754353933,0.0880137827833184,0.025110884492538815,0.09696846748304244,-0.07851998648639374,-0.07792646898282975,0.09461479358304195,0.014861784351787422,0.06576286670611972,-0.05453511528055316,-0.02145394170480522,-0.030612380316497975,0.06699774033612935,0.04832252156564004,-0.02518241697585287,0.03186174701071828,0.08386845097239745,-0.04594192705883188,0.0769202236328396,0.06489918588808738,-0.08220159050967404,0.054106737512133324,0.06394247020248664,-0.0036613048292629263,0.05154350758686829,0.06722284591251423,-0.04966738843574547,0.05571769549759226,0.026289036442610353,-0.09459825435182755,-0.046943653398418106,-0.01162265064385741,0.05743469011716901,0.009918620169774184,0.04586602155958419,0.08917895959138619,0.09035534147028276,0.036030063410674884],[-0.07183715598249586,-0.027984758428922576,-0.07928475033883095,-0.04458800256997924,-0.05064919791862553,-0.09785261407822052,0.044825059304139075,-0.08085789914776713,-0.01864704802783748,0.0028393452807841946,-0.07864373791713689,-0.026461206829394998,-0.06871325539166118,0.09258719273308744,-0.07811060731917333,-0.00545794931048868,0.052179532101608084,0.021816675190771656,-0.0885284089178778,-0.08496487197732422,-0.004681825085477792,0.09447288295722203,-0.09393273194570802,0.05007940114160381,0.07915191548375175,-0.06961659622364481,0.04942769062076377,0.06137206702427553,0.014546845327850083,-0.05845604782551314,0.0727579759930937,0.028021528295543385,-0.03959709417711069,-0.08228364634583632,-0.06696563822299026,0.06048782746561321,0.04079873031891332,0.06531627706062623,-0.012088676420996841,0.09947122653984503,-0.08542687964921568,0.07825368564842092,0.009165502234498968,-0.06768056631418587,-0.015378774476412033,-0.022246345106491622,0.09079518157417638,0.04982311474691581,-0.06306613798516433,-0.019456613307430773,-0.01134075415179879,0.07749550185326523,0.06741340492865505,-0.01814575420999255,-0.018361208949065594,0.07703208110212592,0.033240520152425235,-0.018797221404438513,0.09852252806923459,0.0805772032483312,-0.07966795854340392,-0.055210623302353753,0.05027060861330443,-0.06027695133185757,0.025797786794883676,0.036841415912195086,0.0039753076472651,-0.0923847056462336,0.04160929956157905,-0.013577642241622126,-0.022548315192926854,0.0023070211471789837,-0.021883731685920005,-0.0864423727667501,-0.031799191045704875,0.042650726835916586,0.09961219862965195,0.069749943844718,0.0022929981938509814,-0.0885458570742878,-0.04097545322106499,-0.03704933574864311,0.08215165833423782,0.06966362017746933,0.02367095105922698,-0.0943010259321449,-0.07873575368762421,0.053811497383009554,-0.045777433126499435,-0.06294935632775953,-0.07988734449998781,-0.09455075895247725,-0.048535456945639245,-0.02832529856591781,-0.005298345179563277,-0.05747181242181304,-0.05106041713768681,-0.09130380690118209,-0.04119857572097785,-0.03216107901939591,0.07684500887322154,0.09939074357697042,0.09129782837957409,0.08671509791531759,-0.009311792568703625,0.09374091732613984,-0.07454078916434118,-0.09810018985627317,0.015529162621878756,0.0545852207943702,0.05620265757252013,-0.009629154143918461,0.0031513690665545546,-0.04676993651038415,0.027218691021453606,-0.055609418034462975,-0.09724461411373922,-0.02664592336236561,-0.033685948950073194,-0.07924804456047103,-0.06451498191529906,-0.07524363292246823,0.03334689684707334,-0.022343290826641868,-0.05858757828099492,-0.056152184231132565,-0.01148133042506011,0.09867995642674934],[0.0019249314530245254,0.0971238391443619,0.006468515940887376,-0.08399835518438505,0.07629239521157222,-0.0857291399654079,0.03301717561981407,0.020722541813593717,-0.062374215963704197,-0.09990400725190975,-0.00033750251502615014,-0.07234598748797327,-0.005917415231522935,-0.040442941390897616,0.016650283698891946,0.07032620007819271,-0.04661782923801827,0.007477505001793852,0.041677719665676405,-0.09905841470876627,0.04229623684543321,-0.05213527067256399,0.04064936410274794,0.06252033710759289,0.09418116602475365,-0.02670488163762265,-0.026156559423473905,-0.07471640163771517,-0.06749913211941369,0.07838817819512078,-0.02959359820657846,0.037848917947279265,-0.08866108849484405,0.09683011147224763,0.06359819228043173,-0.0803670185342356,-0.016295540368140182,-0.017192004294978303,0.045988408327990116,-0.0714199818817853,-0.09905413931125664,0.04167351323302931,-0.04629159501589636,-0.027686835563759157,-0.06141398793837531,0.06887229378125201,0.022015676186854294,0.029283916962701995,-0.05142757021607368,0.07260003119590175,0.01578536643799966,-0.043645599050002794,-0.012501223131065053,0.049516524335913664,0.013316186876195762,-0.09830919502701722,0.024371542609249716,-0.09421488697175298,-0.04202158200298928,0.06400401662539998,-0.06442104652741976,0.0256659618172122,0.06417306677907653,0.08305866394846823,-0.017961547986860532,0.08305738524430117,-0.08113182856777036,0.006765853288751539,-0.08370458339894847,0.07737367796744715,-0.033991305284016754,0.046817597878950734,-0.01664986721748561,-0.023030899716377257,-0.06551780401205363,-0.003165102002134698,0.04047188334449886,-0.023501132852115192,0.012218226582918781,0.09600401284790058,0.045661852183158935,0.08950088039673834,0.0022090623335445647,0.07109211385974587,0.08977641370939651,0.07363013372901359,0.0587369456369089,-0.03929740359462054,-0.05828476671797526,0.07064704293689647,0.03438822225832716,0.0458652330568842,-0.09879498084459688,0.03248286262367461,-0.07603336387196721,0.07400756988014595,0.07413614417108558,-0.017639291120906397,0.003964826964278384,-0.04166474080441928,-0.07717706391174867,0.06900446194607568,-0.0013529745378980662,-0.07312335200190656,0.07550701777908628,0.005811492415666697,-0.059639057198696374,-0.02461127199332533,0.04587863051379276,-0.09520712655877683,-0.001476987884739378,-0.08600369721914793,0.05266571664194422,0.025504401028476842,0.04798687654360395,-0.022767954422289932,-0.09521346544545661,-0.027231804203009316,0.03612956346862403,0.03437159117489211,-0.08859739427868478,0.03999764461886454,0.08891987643006574,0.08112147589794522,-0.010444500730692613,0.09749805391910865,-0.029643231020222538,0.043548217322465],[0.05958181886923433,-0.03531369787136558,-0.03834679269243484,0.017646162549133385,-0.018773627789099384,0.027497393142346394,0.03807029892805133,-0.07764884894227578,-0.06767294512140773,-0.06147271066380902,0.07049016574516251,-0.044949843465614196,-0.08173416272753534,0.06695778396485347,0.023360716490508,0.04737468540546089,-0.05076282539544038,-0.08620643646689198,0.045385450006826866,0.04918237919048504,-0.04699049929882984,0.010162319303559333,0.0843928362431959,-0.07062864964012072,0.05185799609561462,0.0891523608586954,0.004844778344184772,0.09608918323392046,0.07120477600540517,-0.019836094241458005,0.010858000903219395,0.013218356561432262,0.04495211185870382,0.04164146689304982,-0.09915927498758738,-0.010984773547951035,0.032672034265326555,0.07845626981984033,0.020165183253025826,0.0637736521329619,0.04637804399177356,-0.029221095781333167,0.04365916205062351,-0.07042209619600523,-0.06695980128871412,0.0699054149277133,0.014325089190674142,0.08662467363653273,0.042709434155160514,-0.01741392312915288,0.08618344772390896,-0.06099106377115823,-0.058667038275913894,0.046126966551091275,-0.06534610272211924,-0.01191925065744831,-0.018771563812232717,0.0490194734761456,-0.0037136652931700487,-0.004127691822809573,0.04745168753850201,-0.00976807716848968,0.05987172107117936,0.045353241960482876,-0.07019848990770822,-0.06589027045309143,0.09313413182503003,0.0916485306878578,-0.0444378609198991,-0.031928242999212125,-0.02196182706469195,0.04277283257252987,-0.04494002010373952,0.02997504382254651,0.01217561699962369,-0.0395580598318828,-0.04497871166159315,0.02153829806386902,-0.07475585638496222,0.06331210175824456,0.019433488827784284,0.03883155488198112,0.03083234114453695,-0.009883867691713719,0.07737491048084669,-0.008502027911455087,0.05584488351964176,0.05086460992050801,0.04873276581129307,0.005854992738102277,-0.0827062684417683,-0.012378053274151896,-0.05504847569893928,-0.07897369341241954,0.08070223211850233,-0.05087698107104984,0.03970192484456697,-0.07320879786310279,0.052751941747513464,0.03330622943370953,0.01469812445559586,0.026069210271377596,0.009516649016152387,0.01051411639012878,-0.04296970665533687,0.04944963157101323,-0.007309484877764241,-0.02793479266213421,0.07231886358245615,-0.07869127261391581,-0.08130363052124308,-0.05659039502751358,0.06951997619790248,0.06040666248614421,0.09269710887715521,-0.01703555289015332,-0.023854948631036252,0.07132058327732277,-0.015021754750434949,-0.027990920625728333,0.061906558719603766,-0.07370757266909264,-0.036185179375675364,0.09495378464217791,-0.031889095466583764,-0.07071236902415134,0.04055452753316385,-0.04477266536379703],[-0.018713438130132348,-0.032634809176642396,0.03790315861774193,0.012751822220385914,-0.03643990000320467,-0.01128252828973253,0.010519126499246384,-0.019177890062060082,-0.08246495633225123,-0.045530406933863614,0.07476125502413886,0.09197287355218617,0.03443651236162379,0.011349176985212872,0.0766032472500647,0.04306838275865313,0.06658596552098542,0.050363908917273575,0.09556982335469102,0.01513912169699369,0.0321463725928576,-0.06920498302017952,0.03187489392195347,-0.07151815232086366,-0.05438175755652659,-0.09156199976586243,0.08688650545764673,-0.08395819987707066,0.054984661265079476,0.029837422635890065,0.0695697848130466,0.00445600948795577,-0.02660338963103505,0.00042116847617294784,-0.02088355666085573,0.009237674796406775,0.07021648405886946,-0.04293951356014213,0.054307812089126994,-0.030975318618111675,0.07384393598246439,-0.06859731415569345,0.055446356156354126,-0.0082497223961073,-0.02765923960912263,-0.08324082286331855,-0.006749608288312711,-0.09393668409225624,0.05732992262117054,-0.0005487703803367383,0.09555472746065077,-0.03614114163220153,0.00789913231460418,-0.0896297959833584,-0.03425390602396443,0.0905625930381023,-0.07107590973268886,0.05118385829850988,-0.07557315518691392,0.01863589437711921,0.06727689318194,0.004862461565976209,-0.04721003324623947,-0.0014463067317866535,-0.0793534480371206,0.04237379417447881,-0.05894785213280841,0.05797132242235939,0.03195040661545795,0.09305667520724631,-0.05102047824935976,0.023519237134881688,-0.08201019747943906,0.029007836125568093,-0.08539818555698502,-0.09763111123379965,-0.015536007640785221,0.07822921064754082,0.0026780020480581535,-0.07896249799906023,0.035773214737166825,0.08787249024034294,0.08078761933010123,0.021991245215447666,-0.09466268613982064,0.09601183695686086,0.004452499797241563,0.009334267705455424,-0.02480041995482793,0.09311197864270657,0.08349805036080576,0.004405849335309339,0.038249466456860226,0.08261275337508589,-0.05390338749897429,-0.03892540832830356,-0.05343657597088889,0.04765135730985298,-0.06372959363053946,0.04049532343627016,-0.09214164158745099,0.06591511331369776,-0.06772605840845004,-0.021896301541271243,-0.05448268590383838,0.07458623627623268,0.09606007679699502,0.011185263179950028,0.05251922514673943,-0.06025643943559557,-0.01587288218948149,0.03220610029363613,-0.08553290777489819,0.07686410619201617,-0.0785708440171197,0.03661989254992942,0.0781715205226172,0.08673966903737088,0.04756743307484665,0.0016320500475459354,0.002308935349233779,-0.09206715409752401,-0.03863233983720439,-0.04630831891702885,0.09145279545618881,-0.07811884836205635,-0.06846914326416294,0.026019732686961727],[0.039041608989380666,-0.028763225343203233,-0.041016867612660594,-0.023131036980542044,0.0992250594043331,-0.02699681525312725,0.08288399560664941,-0.02133347743493688,0.012692910848531788,0.04784648693176102,0.03953803394150762,-0.035171567947007945,-0.07605103830038216,0.07459876746581548,0.07630897068017994,0.059534969240958274,0.017877836911647488,0.0502898604629817,-0.024981041323890646,0.051187720518197144,-0.028875769688966213,-0.029943904948845593,0.004644917009947486,0.07700894963748392,-0.06824354660730858,-0.08242705709770184,0.082980046231895,0.06771277362456671,-0.01594720947193158,0.0077210196573669065,0.05728285721744528,-0.01955222909648323,0.04536427044025995,0.05483294387959073,-0.05809232117585758,-0.035989303888473365,-0.00025646315783627027,0.008277549270188894,0.015783090967854324,0.03081147770284942,-0.055175546308504804,-0.05996861055422695,-0.04362334261859599,0.0522053024662372,0.02848955790237201,-0.07149096955594483,-0.03195474827276061,-0.09856796541763925,-0.093290946688104,0.05791618758673747,-0.0070183005269583015,0.06852112104473584,0.09236341540921003,-0.01964784917218987,0.06250073195573491,-0.07405992378933808,0.03282977211571686,-0.0029103957411964615,0.0900390975968118,-0.011668505416468078,-0.09814162803051807,-0.020489830218325428,0.008116830415998574,-0.06321012524191277,-0.0752151672080941,-0.06552538285818228,-0.005319530087752294,0.09804580470603688,-0.06456580961922068,0.05867559448608581,-0.005684990904503737,-0.04392758402120485,-0.0034049206538213916,-0.07236420178513193,0.07704501673086953,0.07156154047181826,-0.0666649761197769,0.04917258275002498,0.09244065997858067,0.07235589167142698,-0.08452920580896615,-0.0965577217410825,0.01903469339690393,0.06359144197025063,-0.07311426711262688,-0.053507557360689434,-0.08120998313900231,0.017936439019176603,-0.039495411350514924,-0.07894979995586826,-0.0356350878461341,-0.029368694583386368,0.046582473350308434,-0.01309630955809829,-0.04118352174426015,-0.06726550451315025,-0.03576575813836205,-0.08703894837770888,-0.06558633215507134,0.03322731905451032,0.0005533928326924703,0.005305877812160548,-0.0041868878458831554,-0.06760924330455695,-0.04552484870407042,-0.013962228487303635,-0.06659026687594405,-0.03583087133526355,-0.04848809282931861,-0.060165646176795554,-0.09115817637984998,0.07476774248492066,-0.07214871151931293,0.05628029183988084,0.003359503682698356,-0.05590513248072422,-0.09650050098001695,-0.020543469381888446,0.07546803619088302,-0.002796331579628289,0.08777342655092535,-0.0844386103209818,-0.06693769047735809,-0.033802330475494066,0.08477445127015612,-0.04963232686023981,0.03722210149919228,-0.06748533229392031],[-0.0705309128529741,-0.08719422281046775,-0.05401658460098082,-0.0076840681524341925,0.003707830200549961,-0.027988810139520842,0.0037982457779745377,-0.044132958674822365,0.09534152863247947,-0.09180077985015025,0.041782837918435095,-0.009670663804270035,0.07325718925341282,-0.061547425825543615,0.0890605109545812,-0.01748244494555609,0.06770167456429793,0.05611928896574156,-0.018403086550045702,-0.07380955131254602,0.03579914752859317,0.022444091628324545,0.029651196802970847,-0.08989025303347645,0.06912472185831431,0.007154923263218427,0.027207239759030777,-0.08863957105902451,-0.09089254622297203,0.02937330219281853,0.010972631711693048,-0.03319072899076925,0.08881164360593982,0.09751150339519385,-0.052237967039459376,0.009657752285745877,0.049611617272943276,-0.07531621242144307,0.01703474335187176,-0.04400562294722056,0.056922263607817575,-0.016830280414589907,-0.08693191598331085,-0.02428723153391736,0.06408896528160701,0.010426968365820202,-0.06544970708552074,0.09303054511206268,0.08151414294222262,0.0034579452707790698,0.04973779448915372,-0.05192542734411013,-0.07888430172646864,-0.05081821608813872,-0.0726923799355983,0.024822981308304043,0.06437704280332596,0.07954099927721978,-0.023615044051912143,-0.05447343413346285,-0.060603712716653775,-0.02565188695896764,0.05098678997627601,0.04936462079270998,-0.021725429251107722,0.03978350511789519,-0.07317846986852294,0.003884829176791116,-0.013993617895704302,0.07373653380113432,0.02630084400110483,0.08990400863306405,0.0014210941987316816,-0.01801142777573911,0.06357843058890153,-0.09650792948753466,-0.0442565753041116,0.002196890334117213,-0.06060218349736901,-0.059220819881214,0.005200056965489752,-0.03303158277092903,-0.052694509783311534,-0.004030459034976092,-0.08814006058459137,0.04005418738365782,-0.00973647955564852,-0.03407731273970398,-0.07868383898975628,0.08364866562000467,0.08037846593130987,0.010375411882585839,0.050812884795964464,0.06988205660216476,-0.0656064349023959,0.04291072986332034,0.055837666308318684,0.08292589676291204,-0.05100175371951765,0.04142605199157495,-0.09277175311064052,-0.028957783889437608,0.0833369479394111,-0.06051184557973816,0.09074181738136564,-0.02987973152388386,-0.04726136200827248,0.0018064010234364741,-0.0012245243632132002,-0.027499695318386183,-0.019276752122377463,-0.07765737367844565,0.030394006139270957,0.01663090491344961,0.006544240385304503,-0.005083391690262937,-0.03674593194153171,-0.04833202911734476,-0.00891991318236815,0.030012840247983785,0.06763972680189978,-0.006050415157138528,-0.07367018895125715,0.06311426877702989,0.056216776466077895,0.08758010137161423,-0.04229983653116986,-0.09744732449178428],[0.09944178159210149,0.02591760089684708,-0.001703055992914329,-0.016777355007112374,0.018317963969193565,-0.035820319269662615,0.007527674066738266,-0.07813954357477791,-0.04096497351879316,-0.014744782658959149,-0.02225025390456596,0.07114772589223459,-0.02775089137693952,-0.0842101461626251,0.016268858747668008,-0.07186514013473295,-0.04216226451561447,-0.09074142498655702,0.0528576959976462,-0.08400504665038278,-0.025147862160323886,0.08072194413542652,-0.058810564397742265,-0.08284542471451133,0.04151027130941648,0.026939240880669874,0.06834368524005213,0.07747383304028116,-0.06650797699953251,0.0770155021730192,-0.08877594191260066,0.05404347562907616,0.08284670554554857,0.021198512958592722,0.08341943814450703,-0.005773306824066932,0.03851156992258509,-0.09290610051454125,-0.06828486775072451,-0.040524010927571956,-0.03261532298015085,0.04762548305103284,-0.07303374604881249,0.051829729858988066,-0.0573999525234348,0.01754812870482525,-0.05437625149655573,0.010156147625891204,0.059648487998987365,-0.026941910337414124,-0.06820584025157428,0.01472498449804556,0.026753065330785114,-0.00023593416642908593,0.0060038589412506616,-0.08314651846395787,0.0708833440505453,0.018524443919541,-0.05416758770490747,0.014802896401579363,0.007476541289388419,0.0813537206707029,-0.0752687007764267,-0.008101582537807975,-0.06775875652113422,0.09002810128337713,-0.016259810361022684,-0.01622376299039316,0.04801159643136477,-0.03725474353986892,0.005968881051874833,0.08870876129427094,0.09840262562606747,-0.018115797298536476,-0.02926442630423247,-0.05858162785328702,0.07719050755026127,-0.046094718273391816,0.051167141096438024,-0.04650161230085405,0.0778986694714712,0.0583559068825493,0.09079367799868521,0.01469801132606488,0.06249944241413216,-0.055191960015210366,-0.02708671932435093,0.031204154369390835,-0.08724853855671381,-0.07780887677055494,-0.07068537954872946,-0.06638298102854544,0.09734185542471999,0.010830838247131935,0.0936925705524094,-0.009261593380173488,-0.0532392232861791,-0.08133841902460714,0.0603768315257433,-0.04905629992751719,-0.03906117001658678,-0.0011367872346515762,-0.022974661115526984,0.0685721824468413,-0.013063458069415251,-0.05456554389881137,-0.012444024632196335,0.08355325946947254,-0.05571419943460252,-0.09292627709023696,0.06405589257823302,0.09856066514330705,-0.05995598395079166,0.07799913262725414,-0.09281583956026573,-0.02334647391383453,-0.05385900909016164,-0.05714423579126127,0.018919449027544527,-0.005032318550731857,-0.08253962286222861,0.018858889428751135,-0.039605358715599094,0.03605023826448989,-0.04480906166656987,0.049827395629631926,-0.0923575242397788,0.07375051103193561],[0.015805283916525914,-0.06408280467906152,-0.08183152002259036,-0.05233024644299039,-0.02324503557260009,0.02562094632322437,-0.008848132695100958,-0.033947587550778466,-0.06697086688911194,0.015285915248559684,-0.026367862775782694,-0.0039437800313121,0.005721983497358335,-0.046001934745141304,-0.05001024197570861,0.07080004004687909,-0.012065651137672356,0.04603543937659682,0.0034361677366934185,-0.09340080922396836,-0.05802818749897784,0.03013730425076072,0.046285397015832896,0.04080486546691631,0.009753791074467805,-0.09665190483594759,0.061895026896488986,0.010365753538943284,-0.0840179117115332,0.04191826223549705,-0.03581456542706754,-0.01665733200270561,0.008773678250808811,0.006573315771586735,-0.05070559785147222,-0.0010749169027682304,0.018266223204880402,-0.005648990344612831,0.09138890996147361,0.07013360896931872,0.09763275613919481,0.08226872145240802,-0.01827035211523413,-0.03758725299848188,-0.04428460655563067,-0.024978242888047925,-0.04464821371479847,0.005193830114188613,0.09157000819489283,0.04261592937233549,0.06644577934825832,0.0685223434428984,-0.05195029508102518,-0.07790150320705687,0.0687587574999643,0.04255011266207365,-0.014907609959868257,0.014574162910013233,-0.05899646105455112,-0.09252265610845622,-0.07630585852760781,0.052022301733512494,0.04292060072469406,-0.07784768910620561,0.012422129561745349,-0.046824625108584844,0.0869199471156483,0.027918886983684527,0.04275513617912774,0.04962301290678034,0.018373854798197684,0.004164458444788077,-0.08508948413666634,0.04233111934850636,0.04011333483619778,-0.07969969852479251,-0.014050860437105156,-0.027189483844340195,-0.041071522801845776,0.047423738382818215,0.06511269379390472,0.021760863490111,-0.009473892384541577,0.05508155681098412,-0.008905573056658636,0.056786674303316215,0.06087716438519544,-0.036771338461336,0.0006375625114701522,-0.06185407703012953,0.0438349940974363,-0.035512463918650886,-0.02716359514617467,-0.06080277118851127,-0.002235926338906624,-0.04010518379120667,-0.09241238979453606,-0.04283796487211701,0.03592933645725621,0.035841588516847545,0.0346971745955999,0.07220216857775355,-0.01832966676828572,0.01852328614536662,-0.07257884022068944,0.04100908138680112,0.02184336720820776,0.09248501626619207,0.06190276232253428,-0.027605122004856944,0.09904835713589963,0.04700372807492259,-0.060206226680734914,0.011072229509319922,0.007217168266845014,-0.08011040163437168,0.0015237876258944738,0.07356904215396978,0.05740189895773706,-0.007237099534991728,-0.07612146523969707,0.05079897848711784,0.021604184908585358,0.01878476538840243,0.029895937423914887,-0.004809167197445091,0.02316738361287403,-0.06161557745076072],[-0.05246166187797873,0.056711304691013265,0.09208400347237516,0.02261451964184362,0.028895398445906273,-0.01635837310103913,0.030715493761479362,0.0334184817325045,0.08312304230141118,-0.025563619565238324,0.0704112100522192,0.04075743342550206,0.061138209767214374,0.09384544000256367,-0.09861938224226631,-0.09651391982917451,0.0607123455150774,0.02541603992026556,-0.04628779214313246,-0.07022057463952966,-0.06903243631119299,0.08314010331981952,0.03322505643279752,-0.018035336803275223,0.020921710433820115,0.09677595460206934,-0.052223777106928854,0.07727502378427323,-0.04292332815387796,0.051742892709223026,-0.07395033137086165,0.023715520645526428,0.08843889627812304,-0.03932915308380302,-0.002853031045676399,-0.03838597024101519,-0.03907708878115517,-0.006611357076311705,-0.05509324221544288,0.07481306497214424,0.09463339212418104,0.06766547141363885,0.038246470586423054,0.001490331576585402,0.06179823595698547,0.020515661369343935,0.04602996322671321,0.08607382087588272,-0.0003046085700802309,0.029575364486840366,0.06530653734015532,-0.040623985499300866,0.022037786364934003,-0.052014832784737,-0.06329034697812816,-0.013150282922294407,-0.07555696700424011,0.04902921341072905,0.043979508578382315,-0.02444768794477034,-0.05507024642757394,-0.027750484800994554,-0.07911232292358543,-0.07956565431459495,-0.04552381916277636,0.03812253574600333,0.0794474738572106,0.05431813221066245,-0.06274174454729306,0.008254081393180734,-0.0016902726671197688,-0.07446731571489895,-0.03506690765969127,-0.02788341246688268,0.04060710991054567,0.043577762388977814,-0.006997653630296863,-0.06322197003105592,-0.048829583947530154,0.04497694916364314,0.05251983595345294,0.07957907689254182,0.04847363832000734,-0.09384993153692212,-0.08146464804667246,0.059611203588095824,-0.06494232938461297,0.012026527020863861,0.07720962630700476,-0.043659046055845,-0.03271681280358303,0.08921659281313019,-0.036380788916390835,0.08921815472366662,0.05131892328602922,0.045359511045151846,0.03418153927239803,-0.045636483298514434,0.05950045600645393,0.04555741274220548,0.06740205852732745,-0.07762629961217049,-0.08967380885507537,0.05928354167608743,0.02961681010589859,0.08105020611807962,-0.03899918257777868,-0.0875297338189199,-0.08866977764575586,0.04308566255071275,0.03732700244394904,0.03343614947830792,-0.08073223543043713,0.05095374730923499,-0.08409641511736018,-0.012189908011239453,-0.05079896558791579,-0.020847295109085034,0.02651037898111666,0.08785576306677315,0.0196949163730072,-0.04297723020295387,0.016452096281828463,-0.07554301968865004,-0.04853556910356747,-0.03445566905996675,-0.08080641442255618,0.006585286863588238],[0.06134382750399797,0.09862137219606432,-0.06276789413976008,-0.08969579518062129,-0.07308444891726475,0.03342015772333479,0.05223081067105842,0.03701561259814706,0.08044562334122665,-0.034637574559442955,0.07222914671301103,-0.04770085948381101,0.03864275326703065,0.01600051051470175,-0.002934167283376296,0.05385810627157675,0.04052138025051322,0.07398966007371108,0.036225263570623584,0.026570590857762866,-0.09239093002291306,-0.023134968762223068,-0.027947507155389004,-0.04578581774298934,0.09201503590892132,0.04659891347750919,0.02116564722662384,-0.061887405738417306,0.05985695197588811,-0.03487691985494973,0.09241679721459825,0.04830024389958826,-0.05489951356856411,-0.03741805772219209,0.048180707847690685,0.07099384731925473,0.03128890235343701,-0.026910946039958902,0.09661133566910862,-0.04687666478320121,0.01304043125063499,-0.06880209137964441,0.08581877889319528,0.05939138896307944,0.08607383963163504,-0.08404604207471468,0.04979475369984368,0.08096551994147044,-0.04465521269605843,0.0907811408833451,-0.010431604371352085,-0.05430456395735412,-0.09686019083208335,0.01643459485301793,0.004514264769053505,-0.007846059969932345,-0.086085973134621,-0.06891912545977039,-0.060586915205546474,0.007012646037749509,-0.00976327157075714,-0.05549068537605869,0.04341528021216995,-0.05279043439002117,0.09456990227948617,0.06676543586388864,-0.05424064591653574,-0.09079212757223065,0.021145868303262372,0.04392281415146257,0.023329157664258207,0.011572614085516325,-0.053586176981368236,0.018594885451088033,0.019017516291923414,-0.06282391678243554,-0.015653898480257028,-0.0760853827077612,-0.07893713998982595,-0.027931097385565914,-0.06802328466059429,0.07037236615486195,-0.04912534187763125,-0.03979049316778776,0.05399130472362654,0.022172850342853545,0.05893433576348045,-0.07516505140749791,0.06832562622881169,-0.026930340484987367,-0.07165506812214698,-0.005548170435959468,-0.08918915092294599,0.04006773954409623,0.047340784398907015,0.05212805897622988,0.03256372855699069,-0.025854976674216087,-0.03878640502261123,0.039225004485998305,-0.08374214640741835,-0.01574023067593197,-0.03265767246110361,0.06151034533528857,0.08102239624356458,-0.0989322358402986,-0.029942306010433933,-0.07679364773453881,0.09978688184315876,0.06651430371811301,-0.05168939062152289,0.0005973004478355276,0.08719495197274005,0.046594919275592644,0.03765690233940011,-0.08187228829870995,-0.09181384430358665,0.03218758963004542,-0.06092656610981417,-0.03974277376608148,0.09019560859960057,0.018822097412212524,-0.09201281745119849,0.07196679927371596,0.019630757534781912,0.022979323507785948,-0.05091684825191059,-0.07799612657641726],[-0.03104822928866173,0.05567464444784631,-0.06214969396402385,0.001314239788376706,-0.053988409219034576,0.03813884335660053,0.01949964303944421,-0.039132278762299716,-0.05572469267140971,0.0525222897434387,0.04045388087090479,0.025910025650351554,-0.09178090127916454,0.06533473350882346,0.06821391244700123,-0.08472962587989595,0.05919690919489476,0.03649082968233247,0.09865407562715159,0.04183512918119134,0.05297466936049197,-0.021131528791554915,0.024474008966988564,0.058733882528133136,-0.052022281183384006,0.021389537638905873,0.03787391280830946,0.08889942034602286,-0.04688379846851203,-0.03297362440568487,-0.06841706069629747,-0.020058632039623908,0.014777054828073191,0.010802790396303386,-0.006997226161756326,0.018077869061512514,-0.05233905869862284,-0.09969561134619578,-0.003412234894749802,-0.09950732780946558,0.05125958734682426,-0.055568944594785216,0.08806234451203124,0.09788902555844545,-0.04014391023939337,-0.0651071987652252,-0.013249680964652372,0.09527155444096189,-0.09488299504558834,-0.06181807193719388,0.08263822632318896,0.016547853530476914,0.07415040834003941,0.006173847693797807,0.018549075757764072,-0.013652524800854868,-0.09912783784584558,-0.01112353942942819,-0.0599332429248977,0.06194009171926465,-0.001329338053272705,-0.020166852707390492,0.028922259332646805,0.06541421217389445,-0.09248422911680901,0.06035628342568447,0.026974743689171382,-0.025807898448474184,0.060760721042575766,-0.002337647076200211,-0.05434947081330435,-0.09932072873990505,-0.03753109999062472,0.04094121285549979,-0.07439506108787323,0.012761675571821132,0.027626638640880496,-0.08963106292105029,0.00973311553369946,-0.07507117519264331,-0.023948421806137973,0.08888270368609305,-0.05736430286005519,-0.04555660738869192,0.014653483706649248,-0.09945397647931269,-0.06169836527624017,-0.08956148401534114,-0.05494299707119164,-0.013211495073320381,-0.02265989854687825,0.04495414301587347,0.01626741858581575,-0.09838155196575059,-0.038796349192793615,-0.08856994019352082,-0.061230733912874986,-0.09849915619882746,-0.03884970105631547,0.0424647836334201,-0.04971646971788812,0.04319721764238868,0.05579730915366671,-0.020390317501573635,0.09063142932007381,-0.025734401894324577,-0.07284620540083359,-0.0017899396320010114,-0.0925613217628798,0.04765674682483395,0.026590055634692245,0.049373379620862134,-0.05059009697404776,-0.07343352930171024,-0.04556973538156242,-0.033284028793893666,0.089958091149792,-0.029854293917354335,-0.00610371143057184,-0.04897987546574381,-0.044997468108733264,-0.01719187156086631,0.03848933857861234,0.01527298005639624,-0.038744367834870855,-0.04420066411696869,-0.06451784466396485,0.02110146800247703],[0.006412368568236057,0.07113189009472451,-0.016610496807355338,-0.08688976262395043,0.04293945077234637,-0.03465771774434338,-0.08017650080937025,0.0861696285549412,-0.06545643230032017,0.059893977825775824,-0.058899308095325564,0.07440550117276098,0.04559757010513091,0.05278751045556693,-0.008027294586824246,-0.05159869009396885,-0.05828743148372743,0.016999780166932793,-0.0061555367524113586,0.08985650572470061,-0.028287042106618518,-0.08895747071158809,0.009626853450849168,-0.010375845352442542,-0.0734575068894182,0.03167560622793414,-0.05360014454458631,0.030029716113092936,-0.04395308603535743,0.050578993381755144,0.08154650144742764,0.01951407616718044,-0.027904491215955493,0.0871761370100777,0.008637031473292978,-0.010413748430817757,-0.0336911218178013,0.0006594445441635982,0.08542916860784275,-0.0321520341469506,0.0737173618809501,0.05123562193163983,0.055925625062192286,0.046389788623409256,0.039191992508286366,0.059085365354971026,-0.09746989865026176,-0.025419913116801293,0.0011006027096083504,-0.06093699099544961,0.030506762975627044,0.02896141302518057,0.06556331739915111,0.09362608202568978,0.04557721631150549,-0.06545114431753915,0.06315441292107565,-0.09085880233824406,-0.0578064288114246,-0.014244307694706998,0.026538654647064647,0.08106040229080763,-0.06225044505120552,-0.07427926085328947,-0.02986302426478006,-0.05817143035100999,0.031645444533922235,0.018922952233230622,-0.0035189448088077807,0.057911069041855695,-0.058868493497639354,0.024249679284905512,-0.09287796089183967,0.01729555235215645,-0.03191563952778069,-0.00900050389275718,0.07682305372477063,-0.0022431659633440765,0.06634553738673782,0.00935854086842855,0.02700718931473567,0.09423906066594462,-0.0045948448530541,-0.09007277873738971,0.08407366644839431,-0.007122112248238777,0.002735764637849719,-0.07348973377410147,0.08018928838383196,0.04983725709335668,-0.015816360983022748,0.025085846072929102,-0.0025603115542797844,-0.09486158766776832,-0.009929561487878047,0.08490822868662293,-0.014390873535908733,-0.012948862131156813,0.02880627534251909,-0.07873533966252123,-0.005820380594626695,-0.056475852032675064,0.0590602201255265,0.06467995682119221,0.0695153369843717,0.06507034056691738,0.06635963087860369,0.03141508886226321,0.026917118554127456,0.09523161078135475,-0.034310907687965325,0.06846119744016768,0.06606778657062776,-0.04903109035827161,-0.036462188619408406,0.07052429355884013,0.036415217606714706,0.029783543392543826,-0.0010497085019828545,-0.08178411345401107,0.04922907663492823,-0.04155399960314267,0.014881247764966618,0.01828723547186084,-0.05711890520461331,0.06813338515722198,0.06259508391906546,-0.01472465128533093],[0.0670313306945893,-0.08112986563456172,0.06895310657505538,-0.08216436211423572,0.029513344716665335,0.05763547263141888,0.03072461778331953,0.012772835195092827,0.022781463124425305,-0.03087879725948771,-0.029719708714733353,0.08962549066284195,0.0477364206586364,-0.017843599622594353,0.0317575485946715,0.09129793770587744,-0.009310744118411374,0.03421185354434039,0.06780569805658809,0.026879743506931175,-0.006790736235808323,0.02537727363133907,-0.09527755625296076,0.02035704465899671,-0.04111547490921396,-0.020969316576228622,-0.07721229315568248,0.006870684786890083,-0.03231162625157459,-0.06233325937810821,0.09878435156760532,0.00777384833660541,0.09254234990600457,-0.025744053019472343,-0.025026107415194246,-0.042459532078536213,0.032130757685458644,0.08117907618084294,0.0645651602426672,-0.08239526539302444,-0.021182088706105467,-0.012180575076186723,-0.03305748733247382,-0.08705792295511225,0.01644673627623379,0.07811966995493486,0.013641114038548993,-0.06231459887541357,0.07811287638544787,0.03971318621423722,-0.06360779159543807,0.09500396748387208,-0.046690105797323106,0.09957150228743558,-0.047865299356492766,0.059490020059027454,-0.04678254975081399,-0.0883208195584049,0.06293098989394758,-0.04706896095388483,-0.015173059301948635,0.07588467772658491,0.011287472159864004,-0.007695995362048111,-0.056505260484121675,0.0013678731320220655,0.08495944464912769,-0.027625012562222453,-0.09497627499999714,-0.02429621185934766,-0.083883047823427,0.03605753535803105,-0.03284117460174267,0.09694308037937957,0.08302302595949909,-0.04800827894735023,-0.0017114591203217927,0.05992460129968394,0.031199395289270043,0.019808451642055164,0.09834190104953838,-0.05260346441545333,-0.0746383267659102,0.023038863969535514,-0.09331355263513876,-0.07333473876434847,0.0355634209629887,0.07633704903152125,0.06733248998796923,0.04381194505847946,-0.0968686810826472,-0.04607797196389234,0.022769338737612513,-0.08521818795859867,0.03521799775527143,-0.009679696620074785,-0.023927883245397297,-0.09493031292693456,0.017254778838552504,-0.09494567693087116,-0.02494011878888333,0.04250543816659508,0.09045434342316264,0.017950345500642936,0.08955179694791757,-0.06579523175212895,0.08942472821792258,-0.0032533817398618797,-0.018258344765167134,-0.09276736708871464,0.022193512667730578,0.03849049394425558,-0.034151726473868424,0.059229413598243214,0.059059747307392746,-0.04575946362419373,0.030693937666415594,0.02912800454520223,-0.07968095552726204,0.04107065718884245,-0.011320113301787532,-0.036246011913835516,-0.050059927905321516,0.015370819918960943,-0.057861028369997,0.010015930799289238,0.08606655390514328,-0.02953689323598728],[-0.08630163167962052,-0.08528458914788138,-0.014605557159385232,0.09036725735526882,-0.026486776145489,-0.03541687973560552,-0.08635714512448478,-0.039026853626136004,0.08011647400047694,-0.07686329880664954,-0.07191972765388585,-0.07246783468854064,0.024837054973581088,-0.018260880437327362,-0.0838230307893863,-0.06365711300641932,0.04396659451519605,-0.044100099459907206,0.02848509430068885,-0.0528591277296371,0.026861237526049464,-0.020775673845972314,0.010843745158364476,0.04175963229445173,0.0411267080264483,0.06906860942000456,0.07102032371107,0.09034860968207792,0.047917452474533856,-0.035548608505768006,-0.09127407813828513,0.06243749953912203,0.06347124214734573,0.09474752460547095,-0.019279670307195934,0.031105100003494313,0.054431554087039175,0.09582008544268553,-0.020991266835716255,-0.05444576140122059,-0.037649284937192606,0.04356678018992241,-0.030643342451042388,-0.05917160763714299,0.016008460376851594,0.022818440949586336,0.06774987075959563,0.057161672685903164,-0.09410080656328078,-0.005469568931739652,-0.017870745094659968,-0.020340164399146474,0.008652499226021002,-0.09078084830239022,0.049723830909216615,0.09258149714808589,-0.09913587970998787,-0.012042285850286466,-0.003509998283231286,0.08405939355138486,-0.06228340463654462,-0.010857260527634055,-0.08678186756451466,-0.03453366167925913,-0.09884067145269315,-0.008132164626897337,0.01751111714064779,0.016043428717471747,-0.033353620149018215,0.060605680665652945,-0.025635066579492924,-0.01585879962497512,-0.05138182749948009,0.016281665583267407,0.022129646258042812,-0.05059297500934937,-0.0865317533947389,0.0369637087403355,0.09699554596489263,0.052962477164264915,-0.04739476017374409,0.014164425433949884,0.016193072380434617,-0.030732589193018897,-0.09873035610936087,-0.05789014173400573,-0.03635939437574051,-0.08414352488392124,0.03193016150004699,0.03178245279065567,-0.08162520787723511,-0.021069219523487365,-0.07568778991140691,0.06583079288259294,0.009474355392648653,0.0889832344525475,0.001854948734604081,0.02914565496061433,0.0145104399032195,0.09051675109378196,0.08746855735084072,-0.09979232092325739,-0.09558028693054246,-0.09374868103870833,-0.05893826059305227,0.06015677259535998,-0.09926911572300487,0.043548278772930854,0.06001238258989877,0.08992801988079266,0.07916967543777712,-0.0023139371970776063,0.02090019419896176,-0.026217338738098298,0.00010171189711169482,0.056640698598397765,0.05895225336230875,0.09064619167776417,-0.02872257976068318,0.08848667499957541,0.09965906755793713,-0.08386791219682752,0.05681229917943459,-0.09867466728201378,0.05761423617059269,-0.038722456879830384,-0.05832544040843881,0.02084598197050329],[0.0054347346843461874,0.08099670436943443,-0.0030935777911872964,-0.07849108068374804,-0.042550288628642345,-0.00879187169546039,-0.06132587852496158,-0.06892383525338609,0.07668917339885617,0.04896874030432183,-0.03240507022290248,0.07218619815215468,-0.046137178264824164,-0.08464610035616273,0.052466422304144694,-0.051925775785807274,0.04702018864332336,-0.0005638394372587674,-0.012357612900352782,-0.027426794855123005,-0.04728012564783163,0.07361585727513842,-0.06889071987120704,0.04489955037266202,0.07626463833232752,0.02281624601923042,0.027429351258263568,0.045899158166212206,-0.0014885203703318972,0.07855201319782817,-0.00966636779834637,0.0821978648261292,0.05456706976507211,-0.019962768609752338,-0.011013845276707596,0.01840794442669065,-0.08598927160457594,-0.00600990432831669,-0.09547761626643429,0.09625747322753894,0.058103487537593757,-0.024366826973571468,0.01603971692175976,0.077634915429411,0.08509815085549619,0.04850689827992946,-0.029877595333519177,0.019840189612894174,-0.038422024127303306,-0.05472218376991704,-0.04760053251679369,0.08257057707334256,-0.041004662838143184,-0.00964552716732446,-0.04873011601602676,0.030167379798353267,0.08517592307134522,0.02374957323609561,0.08471747229165158,0.029748963811766616,0.049160111249570565,0.0021638541069793904,0.034680151254348035,-0.06953281183368432,0.04537841455003139,0.032876514323075284,-0.014495928013989634,0.08814281343989058,0.06195850060924732,0.08451632664796513,0.007607641400179083,-0.000653145368098143,-0.041884613202222414,-0.044497716060474736,0.09613892505544183,-0.08752781723707362,0.01895383632341567,0.05732811062338419,0.04689038867308415,-0.08297593837104225,0.0777768293407648,-0.013908833457262043,0.05755088289343965,0.009268158339601776,0.05307349368633038,0.09051074448796412,-0.0534592818724732,-0.05779094031887866,-0.042254191068799456,-0.01000807416790371,0.07942544050560069,-0.029525884894880672,-0.042096943074649895,0.054265169373109656,-0.0036633452470754696,0.030033407765128056,-0.03373747256660217,0.09128084500103889,-0.03839613386308075,0.022813540826289058,0.007634082192194497,-0.058725523887627175,0.007824914963793159,-0.04369296821873352,-0.0037863870703644525,0.06560895546319845,0.015408221791828505,-0.07831830519516124,-0.08225438331406576,-0.06890306334803646,-0.04978569396301772,-0.03305727684616262,0.07721350137182934,0.06973043528140926,0.021173427629961022,0.05436935068210619,-0.03874040816674682,-0.016755945484061258,0.09539485839582176,-0.06555777529489497,0.03516119053037667,0.08362173931686018,0.062128009687883096,0.009039905186245173,-0.0029495123678593693,0.04641047856598379,0.052774231978875236,0.01042370280144747],[-0.016467114569155603,-0.01386738293388698,0.05504560214908291,0.056872877189934085,0.04042627275318847,-0.056668426543334094,0.03752757956518504,-0.04944326271496711,-0.03218790944781773,0.0003241792228560747,-0.056946455588235134,0.08012914848976802,-0.0036428344054269812,-0.007426966453259867,0.029358855655410576,-0.06197512331441399,-0.05074320152556527,0.09108421312686593,-0.029559307600130924,0.08273478170319629,0.0690306618505856,-0.07644669191739108,0.09661641039353572,0.044778741414551876,-0.006962111346798083,0.0817288725797568,0.03486919470598451,0.04123031018378115,0.05633168457016488,0.03464079439315365,-0.08294381733902528,0.09439335483823089,0.0343715045216218,-0.0444480744448073,0.0946434157823419,-0.027811295780652112,-0.03542119668632791,-0.018694452380466256,0.037405494285038254,0.09005222504538685,0.09281944596081579,-0.09945092327417052,0.030029754962666383,0.02862935964408958,-0.08274574943444601,0.07482567049440778,-0.04749044427316223,0.09681125231327459,0.01564427898844134,-0.03745526333605341,0.07386370441233853,0.09593834055521222,0.05776153772091569,0.057544710875307076,-0.07074964929920993,-0.001540757860701708,0.09144928625453858,-0.037758532022000135,-0.0385091250357637,-0.03212737938352582,-0.020623463529613154,-0.021730938679526787,0.00652589138288269,0.03753309696677526,-0.05179518848809076,0.07024457963412745,-0.08172560193981275,-0.031150136087899294,0.06474099495518995,-0.0906201683624151,-0.01243021001203308,0.01586849648354316,0.03398729287449423,-0.04278933497978691,-0.0059603222114638366,0.07148799315739127,-0.002484719960613016,-0.09704756542187003,-0.00038703861918899796,-0.04487968404269474,-0.03360280792931032,0.0844456739755822,0.05154787161910432,0.07844591663365602,0.08869860451027134,0.05100962168525089,0.07270564123027137,0.09455066301437917,0.0357099876778402,-0.053590577762816255,0.029919673866284885,0.00891654432401448,0.08577577309135495,0.09516815794804051,0.07490371261242454,-0.09629697530083581,-0.05915044762785433,0.03436230404210555,0.07483689489940198,-0.08183832736123493,-0.08982214033247574,0.03172494452487079,-0.07878044410352356,0.08464078866136063,-0.09689623596239393,-0.09097714487101255,0.028678959198063347,-0.0665047652986284,0.05574989348445236,-0.026258352499351503,-0.08307804153281984,0.002246356655059345,-0.09486452942973451,-0.0061527257886922065,-0.09345206839060922,-0.011806472502601723,0.052041575249875155,0.09388806161793606,-0.081627383983837,0.08267634482971797,0.018003991777769415,0.06311564328963562,0.061485581462963096,-0.005519751119319294,-0.02179515951396198,0.04855782535905789,0.051376805570592404,0.030269384959223072],[0.01745911667797899,-0.030066428083701274,-0.05874499141432394,0.0189923631219749,-0.07924162551587205,-0.09739250279663368,-0.029258690129353143,-0.02701935183712563,-0.06739151963166773,-0.03189575088790862,0.013783683894309326,0.0047982367697800565,-0.02259407023520625,-0.05621300430002416,0.0651523865204316,0.0508729861029773,-0.0069290419943801446,-0.022290759497958806,-0.03429131802605696,0.06432003668283012,0.05821671216942312,0.09424831096552344,-0.0610754858515947,-0.05139993930083777,-0.09153114895425996,-0.09241786556001114,0.08071771237220526,0.02144823583807573,-0.009206120764550962,0.09855499290237263,-0.06772898887397837,-0.08634220064243336,-0.07510074052257473,0.0999706405078013,-0.05588372071970175,0.038834108213717855,-0.018016940528133393,0.09054228799378314,-0.06061183108737427,0.07001728386016792,-0.09699907868599454,0.06438371749729416,-0.06107168412404683,0.09261661856314546,-0.04465741403488713,0.07719362259575518,0.07285554148633203,0.08368258293515937,-0.019961923749191132,0.06847333765292277,0.018129307687624246,-0.09246330612087633,0.016744653697607068,-0.07164028058985664,-0.030276249755197798,0.06847581142658751,0.023102989654833997,0.028754229457153946,0.05503703647894059,-0.042726752063347896,-0.06574400382319595,-0.03180925838297689,0.09708034582733446,-0.09541739416147145,0.04965870638917186,-0.028608067104004237,-0.08363576438042593,0.08411834143135977,-0.032291106985835566,0.07565395196269187,0.0581833005070814,0.0016327091089924084,-0.022992047068642746,-0.044600777290698085,-0.04176169741964905,-0.09102579434895641,-0.054013253445828094,0.01917901801380502,-0.09886492196199852,0.062036585942183475,-0.0447368451515047,0.015115460047159066,0.056485011561227955,0.05559226411382434,0.011928946220796433,-0.049070888761969036,-0.020193791874560538,-0.06959416356585585,-0.08161746251005646,-0.0753792983364547,-0.040775060597302404,-0.04176629707727714,0.07203092978972944,0.07102206704691003,0.017156450653133135,-0.062430892681253874,-0.018258885246941886,-0.027802562640083073,0.07952139762371463,-0.042993268233278925,-0.016083614256075823,0.05695859777120149,0.09950575153917915,0.09043451426141422,0.08672842333921696,0.08130441340454939,-0.08371240566788041,0.06632324597964212,0.09858455811204128,0.03073051472422625,0.043947341086908565,-0.06925720543392988,-0.0038917461803599646,-0.07002374947077164,0.024615057932855566,0.004210095948377138,-0.062753087017058,-0.09260509405957315,0.0331021011216191,-0.07544464414718127,0.03010833722917,0.03735954228154442,-0.007076183634148109,0.07040424170820084,-0.07919153683965167,0.07637794698275216,-0.04501572007784084,0.09784581481122787],[-0.053409176459902334,-0.09016959098836061,-0.046761510627056406,0.07156987142596949,-0.05003143951365385,-0.03641736817052414,-0.0519998212067122,-0.06251950795983052,0.09203902419715704,-0.0456263298612824,0.050637456425650096,-0.06087913700083597,0.08145136351757595,-0.061030709158847604,0.04762163103318007,0.09122196503791527,-0.09979505585923695,0.003407490208423944,0.09933429101115293,0.04481463101836397,0.02126822908082837,0.025013561188883676,0.09565315607259434,0.05513468625031112,0.0896441013997305,-0.04881533969767517,-0.050071727106069726,0.08119701235286489,0.02727655420399616,0.014838313500599304,-0.053587453142418785,-0.06792167184520595,0.04112423825081307,-0.06076743504878396,-0.03952591388637932,0.06334128479196627,0.039161870858193726,-0.08537256684422419,-0.06914069683240102,-0.02104739660806071,-0.015876540974625777,0.02645526855409039,-0.0429351418294183,0.09195839604256759,0.012737416575543753,-0.04187686112458882,0.0473597039500247,-0.019477482875298185,0.09178471179949152,-0.07042976030309124,0.07543380895704793,0.032758743183044864,0.04155770607447892,0.05090687348193165,-0.09983390569875086,0.08510471817775284,-0.022333801231300757,0.09845359850449917,0.03291621054430366,0.024865823759173122,0.0334469021390878,-0.0803642346393515,0.023557784266059173,-0.014842004374578194,-0.040287958700747806,0.05649580435748103,-0.06445482898754085,-0.04134053238522731,0.09817493199122374,0.04429756261505985,-0.041993142558625685,-0.04084399933325933,0.047561484342471566,0.07894575096601139,-0.0026325180903066653,0.08304054349820275,0.06269159599511173,-0.08810896148533474,0.05290225188646508,-0.034656948911028745,0.04026911899078853,0.0016427005223027813,-0.09109218268316949,-0.09041073415206523,-0.08067220708344036,0.030005648956646175,0.04631511940852798,-0.03777512724535397,0.03653133608918904,0.09634075059662314,-0.06852794597978037,-0.005880029804793879,-0.028303911573533583,-0.04311430785331749,0.007557928341580936,0.05038306516212801,0.031359579591683034,-0.02007958218082731,0.025112092934872488,0.06111331509048529,0.0705779287457991,0.06992007600222627,0.04334450946259927,-0.05272482416968466,-0.08717883839112194,0.07165959632720897,-0.022360031738068914,0.05599081743847478,0.07942507022163955,0.0776785134575978,0.012959567853564807,-0.046440623097233416,0.06877818451599216,-0.04588683593965268,-0.00901483105586287,0.06514130112039074,0.04773978262419634,0.07284579073415029,-0.029591767071735678,0.031265497330660946,0.041886943573683166,0.06316551279896912,-0.024642495224306782,-0.029773827202125125,-0.09905470842412537,0.09349859486750428,-0.021081383105328658,-0.000057631321449563844],[0.06356167572485902,0.07466875416199453,-0.02791199359329674,0.07608318308614848,-0.03681819134418052,-0.02069594006881134,0.05376627347021551,-0.09148255768192072,-0.07536725761181148,-0.0745939991981065,-0.09422882647539108,0.0015088702668759335,-0.045536618187348325,0.06238367494145386,-0.0921691539691166,0.07116042457075997,-0.04029991079108667,0.030395039208232638,0.060332065065821644,0.0735494675569571,-0.0509902196929507,-0.04155081828697143,-0.047675546762586535,0.08670150509613439,0.05602804755485036,0.011084038754884479,-0.07690848189602797,0.059539195239323134,-0.02774310904941743,-0.0338397184024606,0.02102027675357654,-0.07071947746102222,0.0652772726624112,-0.011527656809160597,-0.06424990117515585,-0.08654796006154455,0.029951469387890894,0.04910670363351549,-0.05103763215647997,-0.09323016169028031,0.02747682961254544,0.06537586827040273,0.0010493929762010329,0.04322174126500333,0.02745652037849622,-0.030840430928080947,-0.06008017563623903,0.015787830418816304,-0.0006617644774476739,-0.09064640231947609,0.017374958436134708,0.053358330042478946,0.06689694210401087,-0.008146745103722958,-0.0196971264797995,0.04962957761539338,0.060524233050901294,-0.0627616005166938,-0.05246126113377963,-0.07570091253514404,-0.09126426847829093,0.062829463280456,0.09584406215554439,0.09975528398952777,0.08560982751372903,-0.02673773105115794,-0.05910618946515147,-0.02159696811377397,0.029372865361670386,-0.05430895333519449,0.03030069017726214,-0.018720059754479795,0.0006456265746668521,0.04459468572967598,0.006143208389313079,-0.03867785927965509,-0.09791510708465555,-0.021442650524718387,-0.082001264669018,-0.00900034367182631,0.09201125316891298,-0.06169150534917023,0.0036221107509050166,-0.01942077636257379,0.003670036958758588,0.09483669770029049,0.07222628086427929,-0.07450024785966597,0.04833324321149518,-0.03450433552668751,0.05791922627330992,-0.034581794647749825,-0.04437677998950641,0.03293624576404003,-0.011280821546322387,-0.0790535736887856,-0.029236478422765763,-0.006642609050285311,0.05666320239195469,-0.007199282193069895,0.03291752198551573,-0.00443301144059409,-0.06719536424849268,0.007764517496787346,0.059729392699667566,0.05721206493707803,0.0687878707429338,-0.06174976893332826,0.09438899374986973,0.05224262184165157,0.02123171115444278,-0.006599860875067018,0.06099975799987997,0.03504192166570494,0.04247146098975188,-0.03422756233581489,-0.05987929043494085,-0.02558776316047022,-0.002852247880019698,0.035603766511498214,-0.08444007997611197,0.005704034092702884,-0.0014568394511692007,0.09425400359138927,0.08702478237529213,0.0748346174393027,0.0950590577242014,-0.013217412270360024],[0.03424860302139898,-0.09762470649379794,0.056433405968769584,-0.059758460968044144,0.01798854630927471,0.02673864580692828,-0.06207039506870665,-0.009550673803379886,-0.06669611432343037,0.04152112076957501,-0.05121404746071337,0.06510463707298553,0.021582465909583237,0.030055875246295327,0.06905752403071097,0.059194450317057556,-0.0793334978003184,-0.05232385836390649,0.06907694541385345,-0.024859932450840533,0.0094719725469216,-0.0667326194793906,0.03607356310325571,-0.006949451061293882,-0.006758133054436552,0.07584062843166983,0.060879215299501355,0.04055180414616652,0.0011150494989179693,-0.08747533948769698,-0.08406123671518784,0.022330792442620623,0.052136602015971034,0.08527254565975609,0.02678139026689111,0.023166122289799834,0.0748677627030758,-0.08864012488278164,-0.025077190622948192,-0.09739943492531176,-0.035295122655669184,-0.049158524771314466,0.08165696021654986,-0.05541697203082051,0.08455875700879209,-0.013382038827396664,0.026086802802120113,0.011055146436848573,0.07633551234289612,-0.049139697847230546,-0.0210948885789988,0.02971855744714752,0.021398539908751804,0.033687969024618375,-0.05459115418636285,0.03235108537347001,-0.09312614357175114,-0.04186189631320195,-0.012310842153972129,-0.0023127901040913695,-0.08551017194589777,-0.035514335104652836,0.022286980057088734,-0.06063901765801402,0.04354466012114602,0.08597400719145734,-0.00395731284676501,-0.02952492253175454,0.08234718046849177,-0.014560749632188993,0.07303430498963859,0.03700989071764499,0.02832439560867836,-0.03644303949916455,0.056809517343000715,0.07287727579010805,-0.08621407806195017,-0.010646825647239108,0.013905465234943779,-0.04628797757339531,-0.07462028664821152,-0.0012599610795378663,0.050752517679153286,-0.043923395137525814,-0.04139136880666891,-0.05118051268940764,-0.09963607608687702,-0.025893743830836743,-0.015900620621601316,0.05919948067220296,-0.07617079718568637,-0.03228358144513986,-0.06770319398997943,0.0947498121394223,0.08988558124096138,0.029678984228095617,0.09761103727572853,-0.07638341503284315,-0.0368269902233309,-0.08713594442207837,-0.04494062804647351,0.0898339266512482,-0.02037643146119608,-0.09989842365724634,0.08445550466061535,-0.09643791306797928,0.07937807034074137,0.043116702897458226,-0.027188693714960438,-0.010941751710936407,-0.02434949332001103,0.002559056036104443,-0.05627295743853983,0.043053750091683274,-0.029886711804584368,-0.046461497898274334,0.06744675021763999,0.030878540657599707,0.0759713888414677,0.07637699798343403,0.01417429850577838,-0.03818244423953912,-0.004505452978600832,0.0037966305608305995,0.014576222515682205,-0.07548749258398592,0.07236271825988147,-0.0829260580501904],[0.06069338476363917,0.0993545220533878,-0.09209054960358844,-0.015307074523784409,0.06418141826929855,0.0643014878953336,-0.06639822548216937,-0.07576077726172784,-0.023969718649170232,-0.021071121696481912,-0.014455141351278178,0.061782771406265785,-0.09299441452875201,-0.04997583897733855,-0.06554648532514187,-0.02934660203198551,-0.04641119437894464,0.055129578074239155,0.05672963009003293,-0.04951718589262141,0.01220399590918661,0.021877031377968398,-0.013903737680581257,0.09885064508854449,-0.09494793206935707,0.08995243001696529,0.02203678444224519,0.0993841000267775,-0.08874374511320984,-0.06877467635114055,-0.051221796612169884,-0.02750399398390517,0.07777173717133323,-0.0031243570659751085,0.020143884922311783,0.04000998938945713,0.0304293738936377,0.0937655189020461,0.054271127088803356,-0.008569508909522697,-0.07198020444875833,0.04500836822392801,0.03677986229642438,0.08724196067282414,0.030813640549117283,0.08011669729579945,0.03935601490864174,-0.0897034644679893,-0.04846566714039731,0.060659674535992664,-0.0881010282552051,-0.004209692216185765,-0.02155698227828841,0.018124052678428565,0.03718049011521332,0.0647387446420816,0.0506067861454956,0.05234992691406112,-0.09469043839650762,0.07605652255104767,0.03583056503341325,-0.09384141472834476,-0.032351378492045973,0.005573737563451364,-0.024115666257787702,-0.05444892285738733,0.01455409234983765,-0.0033917509068869534,0.0026272757456547308,-0.04547323177553008,0.06421622516446343,0.021262731134538734,-0.07894312596964437,0.06665332992980938,-0.023501545112613764,0.029409222456582645,0.03865810135206607,-0.040144546414214305,0.047387060055752384,-0.011148009959121352,0.04243318641766666,-0.09108267645353318,-0.09001901642641186,0.039517178164213185,-0.03917693367052121,-0.05786823470663756,-0.040676950518654977,-0.07120565802007606,-0.045131539066082554,0.005862107871025618,0.016070767705751915,-0.06391474349149473,-0.03951035504494568,0.07308674053664233,-0.07491469389518157,-0.08737553895813906,0.06317137500467099,-0.029853125288078527,-0.042361224748140136,0.027440091632441516,-0.07313926218909789,0.03628303916656064,0.09344139395625281,0.03880160907243288,0.008812551719912506,-0.026878821626270963,0.023153711262146756,0.08612217151343837,-0.054100191883436496,-0.06354330139339484,0.009434399208224906,0.025281923550888374,-0.0012572416733919456,-0.04734284243302072,-0.03825382531324393,0.02841857779727952,0.03663995678132628,0.008027438184816146,-0.06411470408142647,-0.036767755223823015,0.030411651306957443,0.060008162549920585,-0.09565169147293223,0.0225191227854266,-0.05483820646836385,0.005237212643368322,-0.09899746089937873,-0.0571169499312773],[0.06422989878952329,-0.06559167864086413,-0.07361643407709945,-0.0996852523790107,0.08026294829275996,-0.019799478969907455,0.052252934659675454,-0.007593339098691615,0.0022129910012689685,-0.09985185830169326,-0.09448619059798746,0.03971713720851727,-0.01931086558275527,0.06367541880237265,-0.051151798907597724,0.04552332332819159,0.07865350166683704,0.09797388239150162,0.009579833951622027,-0.0005528823036911878,-0.03597852708380826,0.06391714641103935,0.06675465598787694,-0.03676456371723026,0.05821719419525681,0.0651495063181633,0.022888527622335134,-0.0751486083517598,0.08529873179377723,0.017769526448758288,0.006354446737950797,0.06833663144424418,-0.01695245808883797,0.06192646220318909,-0.034905236520145794,-0.03348224093459168,-0.04762046125944777,0.017979948878635146,0.07749989822428957,0.07531512208896071,-0.061121220435823576,-0.09561636175054264,-0.03219135485757217,0.04363541298844059,0.0494332136194795,-0.032771097961056,0.017593092011564226,0.008327565058489528,0.09806828529459577,0.0865410004254337,0.0878572886416728,-0.044252161771760036,-0.03229685255812309,0.05496697729473857,0.055419078917736536,0.09887467029445027,0.018013253080002595,-0.025615486769508186,-0.03251639744377893,-0.09712988425727054,-0.02669320148370083,0.0598895404869034,0.02113350615060916,0.025804221613386746,-0.015639277049658798,-0.09512260560137065,0.016341804505577956,0.07527907636949868,-0.056172933263562375,-0.04890539610129552,-0.051758492438037665,0.034854864599423746,-0.041832502229896595,-0.02793743758884025,0.01644309628643066,0.05122897306470839,0.08097216809219843,-0.010511421731171686,-0.09272574004072573,-0.04706871368483398,0.04881745127380846,0.08390305862615766,0.04343682130320825,-0.06179202925566883,0.08488943543548497,0.03498541705742411,-0.013180521238811221,-0.05378507736348664,-0.04838414388517771,-0.005735433628294165,0.046078658741554424,0.04453199612708633,0.04888708307908843,-0.06493931956098287,0.09825280687482055,0.046929129410245685,-0.07740396730640048,-0.026207506302419817,0.01774271152980436,-0.07432482537023281,0.030489918414923156,0.09219898276903643,-0.007460064975218811,0.06391667214544139,-0.04887301407040534,-0.09906017412637151,-0.08051994299009832,-0.04117460929959735,0.008193100470923365,0.06634390864761394,-0.029873866619464493,0.07983662352090495,0.014806019711115906,0.03567360516048268,-0.09701257271202712,-0.09449097117254267,-0.04825832750836247,-0.08059029778239563,0.0707007678861975,-0.06644180864942811,-0.09760414426504017,-0.010175035236314647,-0.004980437202934937,0.07755000812920534,-0.05366319731107065,-0.007773845859513323,-0.08762116408272393,-0.09774076874614454],[-0.022956928935141035,-0.07591612110446794,-0.04465573047828534,-0.005198042598440339,0.055053947875757514,0.034309764628453865,0.0808724220544822,0.0018511155507901222,0.04307479954233753,-0.04515774810134822,0.030647732568173103,-0.08433954759377071,0.09085477504420633,0.07330581886603571,0.09474409187883634,-0.013662740247536317,0.0023833770842294627,0.002454613364380992,0.08882118653274823,-0.03315064726386116,-0.0844664809053376,0.037900718544369216,-0.06874878732980044,0.03363451654526731,-0.08652238939061138,0.08237859872634032,0.030650274252862875,0.06730137671608791,0.07953815887853222,-0.04938917698876141,-0.017651746573610905,-0.05113986114163835,0.061303371134567713,-0.009131847888303207,-0.060908281778613196,-0.028518394150141818,-0.03918154358487354,-0.023070260730331943,0.09782647636740444,-0.09225657153995741,0.05639681442980135,-0.06175816568808064,0.04412845176642935,0.0023095512570197457,0.060462353308287864,-0.036036471979590104,0.04512806542723419,-0.040696943067462736,0.05056295608593403,0.052656650978519876,0.04726102579895411,0.07148840539511112,-0.04095475844414467,0.08476798630559354,0.08316151320556989,0.022893582140580973,0.018840752680361075,0.013826474239862357,0.05020544083699616,0.07357153112279516,0.019992311223595724,-0.06666082365744204,-0.012020628069979666,0.011311665052736994,-0.0818481812794265,-0.08396934941101342,-0.025603444693658384,0.02172851287896782,0.006255521331363534,0.06505992816328304,-0.040092587366423404,-0.05774219146290033,-0.09555514368088917,-0.0002384384326384048,-0.0779440977471171,0.0942254058989207,-0.015459013203052527,-0.09633308325983475,-0.09542597532199576,0.005078657328299346,0.04508503303114503,-0.09679683625076192,0.0754116932581608,0.03765073061374477,0.06945524319610455,0.053822596951241225,-0.03567171131275933,-0.07966093630563353,0.032236411540531085,-0.054457444051490465,0.02824083432542393,0.08341828788423342,0.08942597491510929,0.04940481554273357,-0.02524078307281334,0.0330970327731793,0.0827482514035219,-0.06145565564754105,0.023406347439723335,0.06178482171443145,-0.05391920248080445,-0.005810643316345149,0.08294974130713845,-0.09818223119533422,-0.09693196865512468,-0.022043955875933607,0.03537779308021344,-0.08071118466912308,-0.037651891807537634,0.022552143580558154,0.06523144804574135,0.024661581522638615,-0.0826572134905925,-0.04924597928897533,-0.06477410537727443,0.03509765201093054,-0.017514155587367436,-0.015627136217115978,-0.01228206625614102,0.057263472835526796,-0.011222779932423474,-0.057929361111743724,-0.05634725956121553,-0.06712749918646316,0.010653957268039305,-0.029977970318614836,-0.07205738221303422,0.0889765526819562],[0.002968763148736314,-0.0791182403185376,-0.05358227428286216,-0.09527326590878309,0.07601935150944192,-0.03500568720251998,0.062284844607357226,-0.07528091087870305,0.07616777679708714,0.055912005592532565,0.01570885967637567,0.08267205535307162,0.017044693912236397,-0.01667247888101056,0.09580462066137571,0.039928722457406696,-0.03177860938462668,0.04333333478978102,-0.0037479875739935553,-0.06082724430570641,-0.01587055216492092,0.007166079502990502,0.07802414312384626,-0.06321117583013566,0.05531956869516666,-0.031891014363661804,-0.04852861741058434,0.06617929305069789,-0.0707127944577508,-0.041420305765702985,0.09890304073897724,0.06399820497845701,0.010037358409380984,0.09875845870968677,-0.044183405114751176,0.061026461391220616,0.004272068298209808,0.06566522819107726,-0.0980392569659844,-0.04243345661871606,-0.008710215879686276,0.055220125842576046,0.07175730793206814,0.0239745640896826,0.09430938000625119,-0.008426963325108394,-0.08771028736662076,-0.08878472155540046,0.06718055491866923,-0.047582254592791785,-0.05490657769428006,0.06765869181347356,0.09349370936191453,-0.01637118326654438,-0.0931020307696427,-0.08463010919326076,0.06968132219622675,0.07693592157802664,0.04910785220333119,0.0029937604747887203,0.018334388187112527,0.024295584861346448,-0.06747655805774079,0.025785063132162944,-0.04656664380639816,-0.06600213185284251,0.08637053485656235,0.09034692488286014,-0.06763569669443276,-0.010217939798332118,0.005105274367230267,0.025661789569995486,-0.08459659727613847,0.08786877730334633,-0.09196217072423656,-0.05622403536388914,-0.00922671856174595,-0.04347494037825533,0.03143797887185257,0.02389686094592365,-0.03931021555534754,0.03235889616840737,-0.04120716620419867,0.020212444980704472,-0.031565600176268485,-0.050071685636751274,-0.08125282824735583,0.0882651431839391,0.08951033568230765,-0.02733223829031997,0.05088026831769055,0.02629386747325052,0.02252857924038003,-0.06680337383500962,-0.01895500511013612,-0.008274570821687699,0.04007350919193059,-0.04116192387105558,0.0596737821257709,0.011016699065023922,-0.052205106267982734,0.05752553116817405,-0.03639260547254332,0.008610451928716192,-0.022979921075223897,0.04040178866710881,-0.0628450341728207,0.025388575990241052,-0.02412113378346664,0.055160389377340024,0.06400347463087488,0.07104816182654392,-0.020756479283619303,-0.01801602438451194,0.03997006339887438,0.09719624580314659,-0.08878322325012533,0.04650340250923227,0.005331692225339357,-0.05453861355583488,0.07975726808222242,-0.03911259406078102,-0.009716015159200439,-0.07341092617874079,0.04775416190314402,0.0746912974634891,-0.06958886628013636,-0.06196198797962144],[0.011206891156541013,-0.012888455934900817,0.08834960377640316,0.03922221259518849,0.05608870245004832,0.030496540351925533,-0.007290545352153982,-0.020911606986929038,-0.0037710442922340576,-0.01378926244484499,-0.05389650719397443,-0.03953071665268318,-0.0970140193914219,-0.0839078413204275,-0.07881176338299656,-0.06633067416150745,0.05633504737896364,0.09343899940400477,-0.06953166937845587,-0.07821145300961112,0.0597019815176868,-0.01094004662805223,-0.08542521328543104,-0.00487855275928703,0.04897751450434534,-0.04654345242492756,-0.009465271654062773,0.05270852557116765,-0.04257090786946534,-0.07403379129613155,-0.07716697750688309,-0.0147803716949029,-0.08750945499081297,-0.09032848427471511,0.08395279342639528,-0.027194216105380517,0.09618056905987935,-0.023967591015242776,0.033844966889826855,-0.0452446215652501,-0.07055148684612554,-0.03056839138065784,-0.06009126127104722,0.02513577194297348,-0.045934351339881586,0.07025128392576305,-0.03220005363759869,0.07642458852809661,-0.0812472074611983,0.013943887864032375,0.07517860410492092,-0.06388549017450479,-0.08451630675424647,0.04952584541993116,0.03450034160402701,0.020546257825119027,0.06753341656107428,-0.008692830909802038,-0.0591907938073195,-0.008895338580469106,0.004472677278530665,0.023831496458410623,0.012319791800349256,0.010776373004590445,0.05702141884323536,0.004063678433005105,-0.09961084099729067,-0.032833919186724,0.050073870792284036,-0.05883291916164892,-0.08468039102012585,0.0012663903730008724,-0.09124345128091389,0.06477600801078787,